16691 100
, -0.058550 0.125846 -0.083195 0.031818 -0.183519 -0.104241 -0.020461 -0.127998 -0.224367 -0.090347 -0.136566 0.090826 -0.016335 -0.007777 0.048977 0.051012 -0.304490 -0.151326 -0.142328 0.061140 0.060897 0.004703 -0.027882 -0.155299 -0.135085 0.273968 -0.155122 0.056228 -0.120663 -0.195140 0.131842 0.028787 0.018474 0.033126 0.070523 -0.171069 0.073524 -0.111681 0.061121 0.383918 -0.006665 -0.070819 0.097681 0.138234 -0.107739 -0.001673 -0.054372 -0.041523 -0.157510 -0.061596 -0.162437 -0.076783 -0.027022 -0.016445 0.095826 -0.070275 0.040087 0.177270 0.046912 -0.105316 -0.198031 0.063182 -0.046634 -0.042754 0.180496 -0.037589 0.057113 0.198238 -0.065407 -0.046830 -0.123581 0.016445 0.282137 0.052690 -0.093384 -0.056987 -0.101326 0.091910 0.002991 -0.082460 -0.234225 -0.021294 0.157704 -0.067803 0.001199 -0.197773 -0.046405 -0.047174 -0.131818 0.108561 0.069987 -0.000208 -0.111434 0.040460 -0.057167 -0.085832 -0.065318 0.007912 -0.114783 0.030407
的 0.087197 -0.083435 0.057956 0.143120 -0.000068 0.123272 0.022439 -0.323317 -0.231756 -0.009262 -0.211264 -0.021698 0.246367 0.179090 0.054117 0.077638 -0.054555 -0.050630 0.072361 0.103788 0.240412 -0.386661 0.096013 -0.192248 -0.117727 0.002295 0.045887 0.003019 0.168361 0.095523 -0.197418 0.115341 0.214799 -0.212581 0.095942 -0.061319 0.089171 -0.087919 0.113341 0.006627 -0.005925 -0.200036 -0.016385 0.093765 0.037470 -0.092984 -0.207072 -0.038876 -0.084936 -0.207676 -0.101227 -0.127119 -0.056040 -0.095178 0.158290 0.076291 0.262668 0.146720 0.141091 -0.134479 -0.213100 -0.051123 0.143333 -0.009539 -0.048891 0.015413 0.009264 0.019735 -0.122203 -0.026257 0.056442 0.126553 0.097615 0.038884 -0.181495 0.175468 -0.041288 0.032955 0.065314 0.149118 -0.173668 0.153916 -0.118243 0.038985 -0.094448 0.067018 -0.104510 0.031876 -0.190216 -0.135015 0.009436 -0.005221 0.033813 0.058236 -0.136879 -0.040189 0.112950 0.045114 -0.084650 0.111534
。 -0.063746 0.080119 0.026543 -0.189359 -0.102860 -0.066852 -0.040616 0.012419 -0.069748 0.094256 -0.173738 0.269075 0.100530 0.124988 -0.219245 0.132777 -0.200720 -0.187823 0.004334 0.224559 0.065209 -0.020368 -0.049480 -0.158420 -0.015575 -0.016144 -0.130077 0.095748 0.005701 -0.200949 0.025934 -0.130936 0.192993 -0.088989 0.236084 -0.098529 0.275607 -0.094840 -0.162466 0.151706 0.116353 -0.027618 -0.032060 0.307912 -0.070771 -0.180252 0.005805 -0.177331 -0.144750 0.068394 -0.128441 -0.026216 0.053781 0.023520 0.080393 0.057857 -0.049416 0.037601 -0.025324 -0.070862 -0.085335 0.021764 -0.053455 -0.026631 0.035154 -0.173355 0.091777 0.047886 0.049272 0.166668 -0.158829 0.080671 0.039520 -0.018022 -0.130960 0.081776 0.027976 0.075531 -0.010434 0.132418 -0.185979 0.047524 0.034944 0.093818 -0.096888 -0.351228 0.027416 -0.060035 -0.296373 0.205890 -0.077469 0.197493 -0.188034 0.149262 -0.220019 -0.218698 -0.017175 -0.059260 -0.049660 -0.096722
1 0.084424 -0.118023 0.135428 -0.400083 -0.008008 -0.054394 -0.434139 0.040235 0.004166 -0.064586 -0.454519 0.093351 -0.091998 -0.233116 0.270986 -0.045307 -0.325253 0.242518 -0.271207 -0.076383 -0.172108 0.257289 0.029299 0.302098 -0.344531 -0.110357 0.097609 -0.107062 0.417038 0.002408 -0.096560 0.114357 0.217371 0.253927 0.170826 0.234318 0.167182 -0.322427 0.321106 0.025223 0.091253 -0.093014 -0.235972 0.146591 -0.091130 0.076727 0.322656 -0.105180 0.086831 0.432858 0.077090 -0.317251 0.302432 -0.084272 0.343683 0.201734 0.060884 0.238509 0.113410 0.217040 0.036753 -0.238633 0.052521 -0.087490 0.116868 0.227408 0.207930 0.160092 0.024395 0.017668 0.360242 -0.341062 0.065363 0.056285 -0.137885 0.195696 -0.334809 0.287282 0.115811 -0.141081 -0.003278 -0.285882 -0.025975 -0.043909 -0.066766 -0.244478 -0.003250 -0.120354 -0.206204 0.174655 0.234585 0.351110 0.221879 0.252034 0.036526 0.078208 -0.086767 0.273897 0.150512 -0.172031
0 0.174688 -0.343796 0.176405 -0.489107 -0.034560 0.359011 -0.395497 0.213210 -0.012837 0.270097 -0.425660 0.151520 -0.153888 -0.095085 0.214499 0.072270 -0.281273 -0.020591 -0.332297 0.132841 -0.133189 0.047126 -0.093391 0.357976 -0.225187 -0.175564 0.111919 -0.181528 0.193582 -0.164633 -0.294229 0.070923 0.230494 0.179629 0.020747 0.099433 0.409543 -0.427095 0.295560 0.227096 0.047032 -0.063135 -0.134607 0.073566 -0.037068 0.016874 0.327721 -0.288441 0.033000 0.367861 -0.093900 -0.044532 0.452242 -0.211928 0.346402 0.335171 -0.112764 0.146815 0.138188 0.125531 0.078380 -0.414577 0.092256 -0.215017 -0.078139 -0.043109 0.286074 0.272460 -0.114827 -0.020906 0.407458 -0.450496 0.053998 -0.217862 -0.065849 0.009078 -0.414877 0.215057 0.236454 -0.226637 0.114679 -0.094075 0.077654 -0.023807 -0.115651 -0.158889 0.284795 -0.066795 -0.262345 0.091695 0.386932 0.433389 0.218627 0.430491 -0.156690 0.307180 -0.170848 0.184018 0.260670 -0.072950
年 -0.087649 -0.254977 -0.072320 -0.353565 0.005088 -0.123132 -0.490913 0.246909 -0.092710 -0.246971 -0.266375 0.442065 0.473695 0.189847 -0.147957 -0.130206 -0.532860 0.337183 -0.361112 0.283924 -0.288825 0.490005 -0.403526 0.159586 -0.525303 -0.305588 -0.209797 0.038980 -0.153482 -0.088700 -0.005617 -0.303710 0.435783 0.167628 0.240160 0.161487 -0.198594 -0.069321 0.084311 -0.262842 -0.178702 0.114594 -0.192827 0.303530 -0.027952 -0.008221 0.025714 -0.050896 0.464721 -0.052556 -0.102065 -0.081454 0.100417 -0.148818 0.068557 0.624069 0.009887 0.412948 0.406480 0.215426 -0.089039 0.277133 -0.039321 0.050630 0.185479 0.279758 0.154082 0.464428 0.249419 0.231939 0.323927 -0.068677 -0.028760 0.229258 -0.008624 -0.114684 -0.130897 0.074916 -0.346173 0.122426 0.317869 0.105608 -0.317336 0.067666 0.181497 -0.023971 -0.121534 -0.137608 -0.422357 0.124594 0.161139 0.619309 0.048100 0.480795 0.168755 0.042645 -0.088510 0.278496 -0.531113 0.040197
、 0.237767 -0.029858 0.118224 0.247759 0.268876 0.018304 0.065899 0.213164 0.057403 0.025306 -0.005828 -0.284967 0.148666 0.032602 -0.092893 0.295277 -0.090411 -0.076713 -0.024230 -0.148651 0.263827 -0.039832 0.143556 -0.084701 0.124378 0.164388 -0.189407 -0.120794 0.105380 0.139630 -0.269856 0.115868 0.085705 0.012710 0.306437 -0.078350 0.071274 0.212697 0.007246 0.002185 0.237116 -0.213423 -0.034782 0.102990 0.139703 -0.080711 0.304853 -0.037120 -0.064124 -0.128693 -0.169899 0.083571 0.049025 -0.043413 -0.102782 -0.161992 0.053037 0.039584 -0.084414 -0.124152 -0.270668 -0.022673 -0.149003 -0.089537 -0.257597 0.134706 -0.003722 0.178319 -0.137923 -0.064755 -0.163278 0.121185 -0.044941 -0.005126 0.168391 0.361841 0.026916 -0.069335 0.073310 0.161689 -0.136662 0.161765 0.106695 -0.067939 0.289746 0.027218 0.188689 -0.054300 -0.322411 -0.008500 -0.163837 0.306509 0.007785 -0.043372 -0.252470 -0.150081 0.284084 -0.142442 -0.084910 -0.124504
一 -0.170189 -0.332400 -0.241649 0.012869 -0.182785 0.052749 -0.183272 -0.513534 0.089931 0.160064 -0.004867 0.265983 -0.044369 0.042266 0.065365 -0.055040 0.292609 0.195135 -0.134609 0.185274 0.114446 -0.148524 0.102755 -0.216934 -0.131249 -0.188226 -0.329498 0.080959 0.306889 -0.212100 0.092982 0.115944 0.028138 -0.150103 0.102588 0.055251 0.243402 0.090984 0.039481 -0.145955 -0.248193 -0.122677 0.263543 0.077908 -0.142505 0.296927 -0.020457 -0.264197 -0.115253 0.258223 0.261768 -0.274148 0.023873 0.068863 -0.043204 -0.036515 0.112186 0.018386 -0.033813 -0.018038 -0.061456 -0.088990 0.000098 0.099130 0.082582 -0.357539 -0.274166 -0.035787 -0.047144 -0.014354 -0.031392 0.210826 0.172363 -0.281467 -0.147287 0.208021 0.248293 0.147043 -0.096060 -0.109316 -0.043185 0.092742 -0.110028 -0.171759 0.132108 -0.122866 -0.064515 0.258492 -0.111644 0.094016 -0.049451 0.050065 0.094986 0.162006 -0.046561 -0.037170 -0.057575 -0.061826 -0.042717 0.256543
2 0.044688 -0.164540 0.112390 -0.314620 0.028771 0.138810 -0.373241 0.099373 -0.029659 0.177544 -0.372922 0.223833 0.050901 -0.119155 0.273658 -0.148677 -0.086901 0.094086 -0.437262 -0.021381 -0.160975 0.131105 0.000750 0.398964 -0.291522 -0.169229 -0.068691 -0.043971 0.307365 0.025008 -0.365825 0.114999 0.178822 0.106363 -0.041949 0.170814 0.211832 -0.290184 0.165012 0.121081 0.268023 -0.144480 -0.074025 0.049850 -0.323970 -0.157899 0.184014 -0.249111 0.044952 0.342335 -0.122747 -0.167223 0.280393 0.016460 0.530466 0.267918 0.113445 -0.013980 0.095015 0.152648 -0.024069 -0.282559 0.071014 -0.303651 0.061436 0.126414 0.357100 0.213633 -0.144982 -0.106006 0.384917 -0.219984 0.089482 -0.097800 -0.209750 0.144465 -0.400403 0.304764 0.053182 -0.185536 0.035270 -0.175669 -0.070543 -0.174437 -0.045661 -0.237465 0.210560 -0.203652 -0.321346 0.190655 0.248633 0.287930 0.267173 0.184771 -0.108900 0.155266 -0.072942 0.191760 0.218298 -0.249307
在 0.214860 -0.215249 0.203039 -0.085382 -0.037741 0.207704 -0.114944 -0.202977 -0.163324 -0.120949 -0.193239 0.139462 0.070843 0.157681 -0.134875 0.087991 0.067728 -0.053001 -0.016407 0.054860 0.055308 0.001709 -0.030454 -0.017029 -0.150203 0.036465 0.094352 0.187345 -0.011947 -0.183139 -0.057295 -0.018708 0.232363 -0.001448 0.145111 -0.059094 -0.034991 -0.206482 -0.032152 0.086113 0.081380 -0.300565 -0.174887 -0.035064 -0.117430 0.075767 -0.219999 0.010449 -0.220440 0.099870 -0.070270 -0.028996 -0.066166 0.076865 0.001696 0.037199 0.127923 0.099982 0.107747 0.002309 -0.005886 0.191992 -0.191842 -0.057616 0.032234 0.032479 0.216561 0.012044 -0.042299 0.062618 -0.157303 -0.181466 0.156695 0.096548 0.021963 0.006649 0.083535 0.185020 -0.090691 -0.008668 -0.201009 0.041581 -0.030477 -0.059837 0.110153 -0.006818 -0.095548 0.178422 0.013723 -0.194482 -0.079232 0.095548 0.253274 -0.132347 0.097490 0.001536 0.010162 -0.008339 -0.058719 -0.076419
为 0.110457 -0.238967 0.002985 0.030674 0.219522 -0.168229 0.062338 -0.316265 -0.289685 -0.246295 0.121174 0.081558 0.103107 0.159760 0.071960 -0.244399 -0.259022 -0.127298 0.050111 -0.041777 0.035578 -0.091803 -0.122695 -0.008657 -0.589280 0.031646 -0.307899 0.048818 -0.165550 -0.318542 -0.092539 -0.034699 0.114395 -0.416093 0.004166 0.022882 0.204766 -0.028956 0.056058 -0.082460 -0.046116 -0.052949 0.134745 0.171282 -0.133529 -0.144997 0.049948 -0.204341 -0.455897 -0.041115 -0.127895 -0.133658 -0.255790 -0.162368 -0.044232 -0.036901 0.373104 -0.004897 -0.084470 -0.117218 0.086699 0.209746 0.240921 0.011643 0.098755 -0.017500 -0.270867 0.060417 0.138507 0.090100 0.103893 -0.134083 -0.078319 0.301546 0.365282 0.095060 -0.248864 0.221474 0.110273 0.230231 -0.098108 0.157445 -0.009524 -0.077342 0.022500 -0.121348 -0.095350 -0.036566 -0.116456 -0.010541 0.123445 -0.184370 -0.082634 0.042238 -0.158396 0.268893 0.170862 -0.132223 -0.030312 -0.038933
是 0.229190 -0.127018 0.064712 0.014286 0.086358 0.172012 0.075989 -0.213733 -0.012504 0.093430 -0.407004 0.262625 0.075725 0.040183 0.023215 0.272912 0.036446 -0.059035 0.118453 0.088487 -0.096704 -0.216780 -0.070726 -0.124428 -0.142827 -0.095943 0.027984 0.161542 -0.002676 -0.145124 0.091718 -0.075279 0.188778 -0.301935 -0.049459 -0.242501 0.227687 -0.149737 0.079765 0.049955 -0.300420 -0.465086 -0.045608 0.054799 -0.125754 -0.150848 -0.028281 -0.066668 -0.243738 0.118729 -0.155867 -0.005284 0.139518 0.090292 -0.076205 0.026975 0.088643 0.094199 0.056651 0.001650 0.101089 0.275815 0.164998 -0.038643 -0.020397 -0.067816 -0.195048 -0.172231 -0.004209 0.003591 0.040411 -0.068137 -0.229100 0.083072 0.099580 -0.019713 0.131840 0.122283 0.106581 0.032229 0.061715 -0.007786 -0.082502 0.009384 -0.007820 -0.079361 0.010223 -0.007512 0.133969 -0.033746 -0.166880 0.152755 0.085333 -0.103979 0.201097 0.053814 0.048306 -0.225121 -0.070108 -0.022456
中 0.041946 -0.008482 -0.159824 -0.049679 -0.076711 0.167492 0.130599 -0.032046 0.064531 -0.079213 -0.084977 -0.035551 0.019407 0.000105 -0.171212 0.201787 0.128076 0.136759 -0.044008 0.200287 -0.115818 0.067971 -0.315720 0.050931 -0.347787 -0.083768 -0.157677 0.091808 -0.128085 0.041702 0.034292 0.225157 0.063689 -0.048836 0.083003 0.021937 -0.198219 -0.023556 0.073976 -0.015660 0.016165 -0.157838 0.097250 0.158060 -0.042314 -0.037621 -0.233718 -0.159042 -0.133466 0.092469 0.105558 -0.254628 0.227929 -0.054321 -0.237484 0.120614 0.331842 0.085823 0.167086 -0.035319 0.068754 0.029160 -0.000655 -0.214260 0.064539 0.044746 -0.015626 0.322286 -0.064758 0.266979 -0.125578 0.112040 0.165422 0.205051 -0.376889 0.575517 0.034682 -0.043816 0.151417 0.047435 -0.074374 -0.177582 0.064507 -0.045437 -0.114749 -0.105386 0.192751 -0.223745 -0.195398 -0.280018 -0.182222 -0.020006 -0.086166 -0.209321 0.032767 -0.076373 -0.046701 -0.333495 -0.067261 0.180224
国 0.381989 0.115834 -0.254528 0.147622 -0.008949 0.001068 -0.237788 0.074099 0.017793 0.019366 -0.139529 0.301342 -0.246670 -0.138578 0.024396 0.376924 0.131210 -0.092071 0.035658 0.366738 0.072186 -0.299833 0.194526 -0.289181 -0.183469 0.263684 -0.230679 0.382672 -0.161900 0.150865 0.326387 -0.005309 0.480023 -0.201058 -0.213111 -0.086931 -0.115376 -0.166802 -0.182662 -0.371660 0.042380 -0.055728 -0.053194 0.403998 -0.025424 0.088669 0.012067 0.343922 -0.061011 0.059952 0.132622 -0.287108 0.423759 -0.182506 -0.115171 -0.226594 0.065170 -0.085464 0.196329 0.267672 0.005045 0.031238 0.288296 -0.138678 0.073657 -0.050941 0.288816 0.239132 -0.246385 0.177257 0.190327 -0.064058 -0.279688 -0.065071 -0.143482 0.164077 0.018533 -0.265939 0.049668 -0.098455 -0.101160 0.312291 0.099180 -0.151552 0.219200 0.194417 -0.065632 0.049300 -0.145606 -0.263758 0.028343 0.213575 -0.157155 0.306586 0.230290 -0.051943 -0.045022 0.098597 0.033449 0.015572
人 0.185888 0.042678 -0.263065 0.092282 -0.137266 0.169499 -0.178103 0.127140 0.036420 0.010647 0.008140 0.274796 0.268166 0.056980 0.272005 0.226520 -0.487767 -0.043998 -0.246693 0.458575 -0.154565 -0.063666 -0.212848 0.057853 -0.026726 -0.008074 -0.202512 0.196681 0.124724 0.285259 -0.067082 -0.232078 -0.173565 -0.228632 -0.017841 -0.261379 -0.091479 -0.130522 0.263946 -0.085017 -0.099072 -0.038584 0.291091 0.234702 0.057777 0.024014 -0.131192 -0.227588 -0.192182 -0.149270 0.065787 -0.258286 -0.137832 -0.277054 -0.032217 0.011567 0.057157 -0.063615 -0.042401 0.025714 0.109659 0.142266 -0.238541 -0.029187 -0.061089 0.098557 0.017755 0.153710 -0.198970 -0.106981 0.086208 -0.187411 0.227666 -0.071931 0.055124 0.270158 0.237578 0.303017 0.033832 0.112331 -0.280768 0.165899 -0.131301 -0.049337 0.074716 0.077615 0.320186 -0.131436 0.038540 0.011351 -0.117852 -0.183524 0.017569 0.227444 0.167286 -0.039372 0.070890 0.114228 -0.223187 0.093480
9 -0.027742 0.150106 0.139715 -0.185551 0.133165 0.013298 -0.426076 -0.027272 0.028859 -0.051057 -0.353359 0.076438 -0.244785 -0.280842 0.271845 -0.013413 -0.231600 0.021002 -0.256519 -0.100729 -0.049109 0.143963 0.219045 0.549505 -0.406404 -0.100604 0.082917 -0.213597 0.481997 0.029606 -0.342841 0.047542 0.356013 0.176440 0.416873 0.176840 0.153249 -0.594489 0.325827 -0.153754 -0.008306 -0.077039 -0.095938 0.200167 -0.158557 -0.081631 0.300374 -0.032221 0.142703 0.448977 0.066357 -0.390469 0.177827 -0.238993 0.236716 0.275353 -0.002123 0.129169 0.130731 0.307324 0.181363 0.006429 0.117718 0.081556 0.149942 0.143256 0.174186 0.224388 0.180025 -0.068776 0.281391 -0.318390 0.170103 -0.031043 -0.136165 0.117451 -0.244642 0.135380 -0.015959 0.041765 -0.118641 -0.415616 -0.164126 0.018385 -0.133746 -0.395879 -0.109117 0.010564 -0.113406 0.064460 0.490216 0.426770 0.097658 0.325100 -0.014438 0.059882 -0.296823 0.438344 0.088603 -0.171947
于 0.136367 -0.251423 0.341343 -0.116359 0.210233 0.368317 -0.096735 0.141529 -0.270795 -0.163368 0.004100 0.106479 -0.140071 -0.037243 -0.114635 0.095702 0.068895 -0.011059 -0.067058 0.155111 -0.394021 -0.171228 -0.198300 -0.164503 -0.204143 -0.055576 -0.046789 0.193484 0.093527 -0.103956 0.198382 0.001228 0.322184 -0.188284 0.206509 0.113273 0.406934 -0.306215 -0.178312 -0.137485 -0.241992 -0.014975 -0.235879 0.288826 -0.190381 0.088213 -0.252432 0.070780 0.130052 0.086811 0.006413 -0.006749 0.104974 0.144201 0.224161 -0.107430 0.407598 0.151489 0.308451 0.014133 0.058026 0.282391 -0.267509 0.224831 0.152937 -0.025446 0.160132 -0.213159 -0.056819 -0.041720 -0.400945 -0.231665 -0.012500 0.100350 0.374391 -0.077298 -0.001817 0.501672 0.032358 0.136009 -0.280912 -0.080728 0.026695 0.378084 0.310274 -0.297929 -0.020900 0.316765 -0.215642 -0.572411 0.204220 0.233734 -0.029093 -0.071950 0.112457 -0.227447 0.067740 0.320709 -0.181039 -0.050037
有 0.184204 -0.075364 -0.054381 0.077266 0.064913 0.361657 0.245086 -0.058933 -0.214300 -0.049477 -0.066476 0.206809 0.021086 0.209940 0.138719 0.382549 -0.063238 -0.024498 -0.129969 0.029261 0.125725 -0.209322 -0.420773 0.179530 -0.139289 0.055746 0.098093 0.041962 -0.067129 -0.192218 0.185537 0.079814 0.209039 -0.233857 -0.106632 -0.271235 0.134796 -0.212590 0.061822 0.050904 -0.217379 -0.019981 0.013313 0.239873 0.019676 -0.148908 -0.131761 -0.095953 -0.283564 0.063560 -0.090620 0.136410 -0.385820 0.158957 -0.065993 -0.064659 0.177140 -0.057604 0.070478 0.211254 -0.062664 -0.113433 0.016650 0.120857 -0.300769 0.062528 0.085743 0.100352 0.018089 -0.058917 -0.092481 -0.004132 0.301167 -0.113658 -0.282041 0.321982 0.158385 0.244834 -0.084392 -0.261681 0.151711 0.214411 -0.091037 0.000932 0.040883 -0.131655 -0.340970 0.158905 0.119763 0.089457 0.052997 0.011295 0.054307 -0.046174 -0.151592 -0.067720 0.041553 -0.059833 -0.115759 0.189090
大 0.024472 0.173111 -0.221323 0.003121 0.077686 -0.040946 -0.060968 -0.149174 -0.056338 -0.068228 -0.260849 -0.014571 -0.064306 -0.095514 -0.278174 -0.016416 0.038355 0.201719 -0.048516 0.122166 0.134669 -0.128672 -0.166881 -0.092173 -0.155895 0.051243 0.056595 0.005102 -0.013216 -0.021149 0.244799 0.117710 0.081628 -0.172797 0.087388 -0.151302 -0.090566 0.163569 0.127569 0.015847 -0.052194 -0.299566 0.092554 0.091320 -0.102094 -0.404418 0.188659 -0.234672 0.013937 -0.144109 0.189920 -0.173506 -0.010635 -0.148812 0.140639 0.130484 0.043811 0.026702 0.140023 0.399446 -0.056791 -0.044528 -0.377167 -0.016258 -0.028517 0.054452 0.005442 -0.057557 -0.008774 0.060087 -0.088797 0.222482 -0.261718 0.073140 0.106067 0.181969 0.000353 -0.234267 0.084356 -0.072597 0.024169 0.132445 0.288492 -0.147177 0.080749 0.084196 0.083528 0.205831 -0.003835 0.020555 0.078272 0.133142 -0.047135 -0.075424 -0.307740 -0.065934 0.324004 0.094270 0.235614 0.063573
和 0.288512 -0.009547 0.034819 0.147564 0.050513 0.153380 -0.034587 -0.055118 -0.066273 0.049497 -0.031438 -0.071788 0.160165 0.062622 -0.000124 0.336565 -0.082290 -0.132255 0.111514 0.059308 0.055216 -0.013796 0.073883 -0.233377 -0.023368 0.043347 -0.210369 0.154149 -0.003690 0.179910 -0.241943 0.043127 0.164650 -0.016358 0.116802 -0.136222 0.093432 0.078712 -0.063417 -0.078081 0.052088 -0.232468 -0.112211 0.105555 -0.159081 -0.096290 -0.008763 -0.105187 -0.116025 0.106188 -0.038383 -0.116452 -0.045691 -0.066245 -0.153299 -0.031781 0.116242 0.024436 -0.089173 -0.090912 -0.113124 -0.038506 -0.029777 -0.136146 -0.161833 0.136527 0.007450 0.035648 -0.031122 0.173208 -0.008415 0.095549 -0.091865 0.078287 -0.043335 0.369983 0.137899 -0.012047 0.070397 0.151351 -0.119464 0.077157 0.050051 -0.000470 0.097563 -0.036213 0.084748 -0.151128 -0.151408 -0.007618 -0.315668 0.191388 0.055736 -0.108894 -0.229941 -0.021731 0.138255 -0.278912 0.002793 0.120261
3 0.066636 -0.412697 0.065896 -0.339178 0.204232 0.086742 -0.330930 0.008404 -0.013536 -0.162353 -0.303021 0.141367 -0.196562 -0.065102 0.237655 -0.013938 -0.052986 0.175134 -0.042794 0.067065 -0.193178 0.237855 0.118124 0.329718 -0.202866 -0.108339 0.034538 -0.046690 0.454233 0.057609 -0.306192 0.056724 0.089303 0.254361 -0.037533 0.061616 0.134466 -0.280988 0.262380 -0.005182 0.262292 -0.089366 -0.004028 0.200707 -0.270490 -0.023277 0.378652 -0.261907 0.019446 0.482020 -0.034491 -0.146084 0.161803 -0.173457 0.325918 0.176562 0.222880 0.209898 0.080657 0.140318 -0.042891 -0.293809 -0.044031 -0.207203 -0.055392 0.071257 0.284899 0.009415 0.061219 0.164081 0.304264 -0.101649 0.019420 -0.227504 0.018003 0.140252 -0.297572 0.273271 0.146516 -0.067260 0.139992 -0.203696 -0.009598 -0.101568 -0.159515 -0.293128 0.048066 -0.290603 -0.038287 0.235108 0.309167 0.452144 0.180734 0.257287 -0.164884 0.113315 -0.332256 0.112697 0.323022 -0.129294
以 0.078562 -0.000996 0.176500 0.008337 0.160283 0.100423 -0.088948 0.058608 -0.145322 -0.062259 -0.162492 0.012581 0.045313 0.012961 0.006767 0.059948 0.023401 0.180751 -0.212900 -0.027838 0.129805 -0.161811 -0.242379 0.019689 -0.015515 0.071085 0.208553 -0.041338 0.233784 0.012061 -0.209679 0.118273 0.336253 0.075866 -0.287730 -0.031694 -0.102005 -0.241923 0.083569 0.221456 -0.079025 -0.011553 0.192996 0.104403 0.009769 -0.137473 -0.407235 -0.037249 -0.268177 -0.048952 0.150933 0.108920 -0.049855 -0.036542 -0.297686 -0.130564 -0.066497 -0.154792 -0.072275 -0.106012 -0.313061 0.118254 0.061040 -0.078624 0.153715 -0.352638 -0.007971 0.070637 0.039224 0.028940 -0.008282 -0.000734 0.027472 -0.252996 0.098372 0.186576 -0.019431 -0.080948 0.128062 0.023763 -0.012624 0.114789 0.189500 0.127648 -0.077092 0.103403 0.126420 0.046487 -0.035013 -0.061399 -0.125610 0.219636 -0.045177 -0.057708 -0.071382 -0.089105 -0.171067 0.012415 -0.170720 -0.021325
5 0.065296 -0.324556 0.119722 -0.320315 0.203454 0.095262 -0.346317 -0.011612 -0.056928 -0.122530 -0.356978 0.126237 -0.195152 -0.079884 0.215676 0.075957 -0.099127 0.218808 -0.134285 0.128606 -0.196794 0.226070 0.131353 0.385397 -0.173965 -0.100015 0.003295 -0.047826 0.502594 -0.039825 -0.345005 0.066422 0.210487 0.267647 -0.000750 0.105697 0.214086 -0.355462 0.200389 0.052687 0.219129 -0.042500 0.000414 0.175043 -0.186629 -0.062575 0.437284 -0.265961 0.003775 0.462954 -0.126348 -0.191088 0.238203 -0.147803 0.313127 0.206388 0.170250 0.135889 0.117889 0.250790 -0.001208 -0.307204 -0.095848 -0.207486 -0.040366 0.066769 0.329512 -0.020436 0.015752 0.153931 0.400626 -0.227664 0.019980 -0.165046 0.050549 0.079798 -0.356157 0.245004 0.178991 -0.082740 0.071718 -0.260584 0.035595 -0.101154 -0.110498 -0.290958 0.127806 -0.274254 -0.098422 0.203855 0.392700 0.515040 0.222192 0.177356 -0.127812 0.079309 -0.318512 0.126013 0.292616 -0.131131
了 0.010386 -0.114786 0.090944 0.107563 -0.247448 0.080917 0.089822 -0.211691 -0.495511 0.025301 -0.354232 0.041315 0.239092 0.069313 0.081385 -0.045300 -0.033915 -0.117850 -0.164983 0.513390 0.056242 0.016398 0.062941 0.183443 -0.051337 0.125100 -0.146615 -0.091412 0.246236 0.119263 0.257024 0.104145 0.178495 -0.076562 -0.289545 -0.034704 0.026149 -0.228889 -0.082619 0.203954 -0.046150 0.119902 -0.120525 0.185154 0.080109 0.079029 -0.267794 -0.195274 -0.097563 -0.318818 -0.164995 -0.153492 0.006489 0.064209 0.038148 0.174897 -0.061879 0.154350 -0.037760 0.053720 -0.193064 -0.021557 -0.068366 -0.006405 0.000037 -0.171833 -0.082897 0.018223 0.047299 0.060466 0.070131 0.063147 0.084512 0.013622 -0.138720 0.126504 0.072662 -0.165226 -0.047941 0.185205 -0.185803 0.009717 -0.223016 0.149169 -0.060338 0.037996 0.084504 0.095279 0.036415 0.148339 0.096318 0.080260 -0.054878 0.067857 0.078075 0.003183 0.054564 0.109517 0.026172 0.221843
后 -0.053823 0.082141 -0.004360 -0.104306 -0.254407 -0.166995 0.046215 -0.004216 -0.365681 -0.030130 -0.170231 0.142386 0.168274 0.005883 -0.286546 -0.265642 -0.068123 -0.098314 0.162401 0.122667 0.044636 -0.032837 -0.021256 0.073059 -0.288723 -0.173010 -0.238912 -0.098532 0.195877 -0.064824 0.227699 0.013743 0.139935 -0.317378 0.161110 0.080304 -0.234090 -0.319134 -0.001484 0.134683 0.157784 -0.288062 -0.148621 -0.013466 -0.156029 -0.216747 -0.155677 -0.083859 -0.004209 -0.049616 -0.028833 -0.197223 0.123986 -0.070234 -0.011808 -0.051304 -0.025489 0.059749 -0.078070 0.193124 0.001643 0.157695 -0.103562 -0.187455 0.117974 -0.282901 -0.088330 0.193988 0.162228 0.294904 0.129015 0.266137 0.133534 -0.282822 0.163252 -0.006924 0.144579 -0.075823 -0.123922 0.079138 0.055101 -0.055497 0.069177 -0.003116 -0.249802 0.102360 0.162009 0.057413 -0.022246 0.037675 -0.078524 -0.071327 0.039102 -0.015739 -0.067077 -0.103022 -0.205361 0.248999 -0.118088 0.072197
个 0.291174 -0.289914 0.001756 0.209179 -0.149383 -0.022925 0.014421 -0.058861 0.138362 0.053833 -0.412399 -0.032492 -0.060320 0.380814 0.217544 0.003790 -0.112803 0.360622 -0.000837 0.211168 -0.112171 -0.050765 -0.229639 0.125473 -0.049960 -0.308578 0.096417 0.021986 -0.272581 -0.157684 0.036516 -0.212843 -0.097812 -0.102178 -0.237986 0.135734 0.124990 -0.224743 0.015009 0.042954 -0.207568 0.123125 -0.161707 0.227539 0.255143 0.128344 -0.044642 -0.372505 -0.227846 -0.181261 0.136893 0.062414 0.073131 -0.226163 -0.138943 0.120153 0.362578 0.242464 0.207774 0.095820 0.019739 -0.032003 0.339596 -0.256217 0.203557 -0.186275 -0.200936 -0.204190 -0.206330 0.051317 -0.110943 0.092590 0.075683 -0.042869 -0.246910 -0.056332 0.381070 -0.092036 0.042403 0.097168 -0.140309 -0.050359 -0.043315 -0.095727 -0.229159 -0.018806 -0.375405 -0.038041 -0.052791 -0.115097 -0.050040 0.018360 0.023044 0.091140 -0.000315 -0.142167 0.144309 0.126159 0.261727 0.221803
8 0.022152 -0.124052 0.119191 -0.251687 0.169064 -0.038462 -0.347299 -0.068624 -0.007080 -0.188021 -0.331926 0.108922 -0.143434 -0.129742 0.289834 0.116946 -0.133688 0.174329 -0.119841 0.063231 -0.205474 0.214166 0.184942 0.425125 -0.263568 -0.063927 0.046808 -0.132366 0.579423 -0.004075 -0.326017 0.062847 0.291170 0.256007 0.183160 0.122336 0.108601 -0.447134 0.269866 -0.118101 0.138286 -0.091361 -0.027626 0.197889 -0.213106 -0.103321 0.371774 -0.151194 0.017710 0.540084 -0.031440 -0.304808 0.185189 -0.182549 0.271952 0.237633 0.175174 0.178078 0.122837 0.287380 0.076637 -0.144660 -0.053396 -0.094217 0.062477 0.118110 0.286159 0.013684 0.131251 0.170210 0.373890 -0.199675 0.049307 -0.021682 -0.021209 0.137379 -0.286601 0.220639 0.085021 0.005841 0.057099 -0.350728 -0.053775 -0.051100 -0.096602 -0.330073 -0.084622 -0.163375 -0.049968 0.203967 0.414506 0.477856 0.168226 0.254084 -0.056896 0.068972 -0.336559 0.282100 0.238370 -0.186449
4 0.101019 -0.372569 0.076490 -0.232871 0.137120 0.052087 -0.344360 -0.062510 -0.016509 -0.151159 -0.311538 0.108862 -0.120272 -0.098742 0.244780 0.095817 -0.088901 0.157351 -0.047800 0.129790 -0.228898 0.245458 0.134301 0.370261 -0.235694 -0.065054 0.053380 -0.098412 0.538231 0.027053 -0.352649 0.032023 0.196447 0.265957 0.042349 0.114963 0.150023 -0.360278 0.227303 -0.036212 0.212595 -0.081601 0.064096 0.177176 -0.239079 -0.019092 0.367702 -0.259657 0.019641 0.495925 -0.080057 -0.155289 0.191271 -0.160686 0.287401 0.159300 0.239250 0.179469 0.081730 0.239596 0.052805 -0.275171 -0.083919 -0.160531 -0.036123 0.095427 0.297379 0.006819 0.060527 0.180690 0.291626 -0.201921 0.041842 -0.172174 0.039251 0.145499 -0.279227 0.268404 0.143287 -0.029883 0.041598 -0.256574 -0.020492 -0.088946 -0.083089 -0.319502 0.022328 -0.258680 -0.037037 0.213779 0.323503 0.447901 0.152511 0.226985 -0.120651 0.075280 -0.300210 0.147197 0.293696 -0.120065
时 -0.063185 -0.192194 0.092235 -0.204746 -0.165146 -0.028359 0.180897 0.113575 -0.026326 -0.329884 -0.299876 0.068162 0.151106 0.245115 -0.117448 0.193315 0.271547 -0.016247 -0.157981 0.316352 0.096440 0.035494 -0.296753 0.024070 -0.475509 -0.072293 0.056746 -0.062380 0.121383 -0.000241 0.189382 -0.044662 0.326499 0.183011 0.056951 -0.238316 -0.136499 -0.177773 -0.182939 0.080875 0.126476 -0.049674 -0.039129 0.211290 0.018192 -0.046756 -0.184187 -0.321920 -0.072190 0.309240 0.071220 -0.396100 -0.029751 -0.035321 -0.201107 -0.035019 0.019246 0.044501 0.167755 0.233838 0.037366 0.040347 -0.107816 0.031687 -0.115297 -0.266016 0.157421 0.316133 0.283930 -0.145157 0.140726 0.065553 -0.014440 -0.071551 -0.192943 -0.270367 0.027041 0.125745 -0.077397 0.201785 -0.133506 0.102492 0.069177 0.009149 -0.221183 -0.002562 0.046073 -0.021225 -0.038696 -0.028579 0.061404 -0.172253 0.182448 0.185521 0.010966 -0.088079 -0.083317 0.048353 -0.282808 -0.065727
日 0.125192 -0.017571 0.098237 -0.100767 0.264944 -0.141175 -0.431176 -0.089833 0.230215 -0.840379 0.012270 0.283004 0.250303 0.332358 -0.200565 -0.059327 0.071947 0.618403 -0.236409 0.323570 -0.276371 0.401250 -0.135745 0.241133 -0.147623 0.148788 0.209451 -0.026495 0.008545 -0.036813 0.391361 -0.170051 0.247658 -0.145594 0.283136 0.417205 0.315962 -0.261256 0.081369 0.309684 0.174916 -0.137207 -0.141231 -0.023722 -0.459149 0.141140 -0.148085 -0.191370 -0.091013 0.301578 -0.149738 -0.268201 0.048943 -0.326388 0.000635 0.657982 0.035739 0.222343 0.179888 0.358461 -0.194854 0.141567 0.144269 -0.163187 -0.056179 -0.069765 0.034121 0.075696 -0.055029 -0.049756 -0.057936 -0.145107 -0.355825 0.254024 0.111792 0.130915 -0.165546 -0.161334 -0.312030 -0.027492 -0.351255 0.033254 -0.082131 0.210609 0.011801 -0.343294 -0.002100 0.036814 -0.213788 -0.070412 0.138362 0.200786 -0.061164 0.414795 0.083961 -0.020263 -0.408900 -0.118490 -0.135472 -0.007035
月 0.313786 0.125794 0.146922 -0.225344 -0.176091 -0.085986 -0.242337 0.052902 0.112741 -0.596853 -0.396285 0.103318 0.244191 0.013640 0.081970 -0.122786 -0.077318 0.268424 -0.629322 0.354320 0.059896 0.501595 0.383668 0.646036 -0.546118 -0.008314 -0.052644 0.124476 0.383355 -0.157523 0.268128 0.028797 0.202146 0.013243 0.320547 -0.142381 -0.000518 -0.508985 0.430165 0.153877 0.089388 -0.177824 -0.299994 0.125878 0.183452 0.256881 -0.032955 -0.289573 0.159192 0.813562 0.075045 -0.211372 0.501190 -0.137075 0.384267 0.317808 -0.222776 -0.040535 0.153038 0.032005 0.148119 0.397986 0.512115 -0.061758 0.012291 -0.022093 0.040180 0.673880 0.312317 0.061102 0.157408 -0.215388 -0.110991 0.023349 0.463663 0.140437 -0.147095 0.144190 -0.300873 0.206943 -0.206697 0.069477 -0.381071 0.075859 0.634920 -0.362078 -0.275902 0.037644 -0.085057 0.272370 0.577052 0.452546 -0.172071 0.066997 0.052784 -0.170572 -0.253503 0.602818 -0.086063 -0.385194
学 0.184288 0.043563 -0.255899 0.142307 -0.116131 -0.012338 -0.194363 0.069091 -0.113554 0.220527 -0.262253 -0.263753 -0.306028 -0.277711 -0.295184 0.017281 0.281129 -0.229833 0.081070 0.178673 0.008752 -0.033048 -0.301634 -0.124598 -0.171501 0.178790 -0.177854 0.082502 -0.150410 -0.091554 0.313453 0.065327 -0.122829 -0.177233 -0.061254 0.061318 -0.151341 0.167890 0.018501 0.127924 -0.149072 -0.282679 0.387010 0.253252 -0.117732 -0.161316 0.005774 0.362847 -0.000058 -0.314766 0.002567 -0.007147 -0.173246 -0.345797 -0.202709 0.082640 0.138556 0.002944 0.188907 -0.074111 0.330154 -0.113091 -0.275854 -0.185332 -0.147013 0.236070 0.280742 -0.029868 0.274472 -0.332209 0.193719 0.003132 -0.216981 -0.243219 -0.296253 0.549275 0.038568 -0.122986 0.210646 -0.180213 -0.110856 -0.084754 -0.169276 0.266312 0.280094 0.258129 -0.073396 0.417096 -0.547049 -0.118406 -0.277788 0.204161 0.278446 0.093593 0.276458 -0.618273 0.304249 0.396195 0.064028 -0.356234
6 0.109005 -0.293736 0.041128 -0.280210 0.204642 0.017830 -0.425420 0.007375 -0.002672 -0.294175 -0.269443 0.158977 -0.096397 -0.114196 0.280676 0.093720 -0.047810 0.202099 -0.053905 0.116965 -0.237923 0.285936 0.184908 0.386728 -0.223429 -0.036053 0.021969 -0.072206 0.600390 -0.003018 -0.279408 0.118033 0.194304 0.232357 0.027939 0.123967 0.166141 -0.349708 0.236866 -0.064924 0.217560 -0.101118 0.011208 0.237743 -0.268779 -0.104664 0.399848 -0.216698 -0.006697 0.557584 -0.077863 -0.266524 0.159380 -0.148960 0.340670 0.173484 0.287934 0.226673 0.089655 0.249594 -0.007858 -0.284772 -0.075636 -0.146445 0.051212 0.100781 0.315487 -0.028044 0.073079 0.211735 0.360963 -0.207917 0.040615 -0.083951 0.037918 0.180500 -0.294540 0.212600 0.109498 0.009942 0.092362 -0.265586 0.006382 -0.069377 -0.112832 -0.379273 -0.042880 -0.231192 -0.060004 0.214405 0.356733 0.468287 0.172835 0.202557 -0.039612 0.066398 -0.378505 0.167899 0.275678 -0.196030
会 -0.067155 0.089945 0.120362 0.523890 -0.402007 -0.253679 0.115357 0.226491 -0.115037 -0.098173 -0.384449 0.326324 -0.199314 0.230029 0.093557 0.217519 -0.018209 -0.046923 -0.228662 0.048383 0.179117 -0.095901 -0.074630 0.139615 0.052417 -0.065620 -0.081501 0.421238 -0.108830 -0.169587 -0.179072 0.192601 0.152622 -0.109447 0.046834 -0.014363 -0.186490 0.171715 -0.023716 -0.015509 0.072912 0.010154 0.158037 -0.027569 -0.182962 -0.016797 -0.178119 0.012895 -0.246228 -0.144674 0.012499 -0.137279 0.027024 -0.266917 0.187530 0.406170 0.169291 0.159200 0.020227 0.179259 -0.036181 0.079237 -0.190813 0.130898 -0.159399 -0.095651 -0.214025 0.150880 0.092182 -0.123395 0.198057 -0.146966 -0.057511 -0.147871 -0.048004 0.017238 -0.067144 -0.109270 0.421487 -0.059927 -0.126687 0.017215 -0.056441 0.038191 -0.054334 -0.203616 0.259634 0.323532 -0.123249 0.001925 -0.255305 0.090710 -0.090775 -0.275203 0.222721 -0.076974 0.039792 -0.082345 -0.055554 0.028954
成 0.083987 0.051767 0.168293 0.185424 0.101176 0.145675 0.163482 -0.121479 -0.244180 0.301050 -0.087013 0.252071 -0.165826 -0.124481 0.019178 0.034619 -0.115084 0.106405 0.176915 0.202575 -0.055490 -0.085612 0.015408 0.151379 -0.229937 0.041736 -0.115340 0.252679 -0.009037 -0.047837 -0.006350 0.191481 0.099208 -0.051939 0.070473 -0.333881 -0.081280 0.042375 0.383891 0.075841 -0.174502 -0.075113 -0.096065 -0.245606 -0.047669 0.115701 -0.362304 0.187545 -0.293618 0.230341 -0.000822 0.024009 -0.122305 0.134471 -0.274017 0.443425 0.019608 -0.084531 0.214872 0.075387 -0.203394 -0.251242 -0.165091 -0.181111 0.155635 -0.422188 -0.006618 -0.180254 -0.150664 -0.136883 0.046692 -0.012411 0.154485 -0.113377 0.071046 0.245687 0.102520 -0.416772 -0.131698 0.409988 -0.331701 -0.000686 0.202528 0.223537 -0.139514 -0.509892 0.068125 -0.061038 -0.022721 0.223913 -0.042016 -0.008742 -0.051325 0.069313 0.100604 -0.116830 -0.029220 0.084775 0.275425 0.030433
地 0.029072 0.161192 0.234055 -0.198776 -0.218270 0.164806 -0.169052 -0.220215 0.014932 -0.031452 -0.033789 0.046379 -0.161719 0.014397 0.201995 0.088785 0.310564 -0.131904 0.019145 0.391867 0.276238 -0.014959 -0.115282 0.075152 0.030600 -0.063685 0.063100 -0.008866 0.226131 -0.137100 0.133004 -0.031166 -0.163733 -0.028143 -0.173970 0.033127 0.228598 0.240047 -0.058888 0.143164 -0.224263 -0.181293 -0.103710 0.069096 -0.115289 -0.048427 -0.214794 0.042048 -0.188002 -0.176592 0.256900 0.016207 0.208081 0.060933 -0.058194 0.276298 0.177453 -0.052248 0.097048 0.139550 -0.106633 0.141696 0.047598 -0.021559 0.021891 -0.012567 0.215485 0.377879 -0.033084 0.051911 -0.297154 0.259526 -0.106322 0.072004 -0.142069 -0.151199 -0.248732 0.039371 0.093223 0.496523 0.221115 0.253083 -0.020698 -0.199437 -0.068593 0.169557 -0.051313 -0.034094 -0.086273 -0.159942 -0.184031 -0.128582 -0.114424 0.092441 -0.094169 -0.256016 -0.087560 -0.016792 -0.055108 0.271645
” 0.009685 -0.011425 -0.061781 0.094294 0.050087 -0.137892 0.030103 0.225203 -0.269126 0.018275 -0.049839 0.064108 0.057102 0.017911 0.288971 -0.054805 0.018620 0.046796 0.178140 -0.111755 0.080138 0.161623 -0.087615 -0.163242 -0.104681 -0.075395 -0.023271 0.093938 0.092224 -0.035088 -0.096117 0.015314 -0.042213 -0.152088 0.003886 -0.094031 -0.004844 -0.129340 -0.012399 -0.152302 -0.181344 -0.262086 -0.031165 -0.158547 0.052012 0.086986 -0.018756 0.020382 -0.263773 -0.077323 -0.128664 0.072180 -0.172776 0.031352 -0.001984 0.049476 -0.026656 -0.152155 0.036584 -0.163231 0.113174 0.046774 0.047897 -0.069304 -0.176763 -0.116213 -0.140764 0.019048 -0.041326 -0.065008 -0.015523 0.098292 -0.051244 0.201760 -0.246212 -0.034047 -0.108594 -0.136726 -0.061887 0.016089 -0.086206 -0.020841 0.010236 -0.155632 0.089192 0.083921 0.080426 0.171292 0.149846 -0.072285 -0.204349 0.232233 -0.084887 -0.038709 0.060319 0.196417 0.370223 -0.057814 -0.027981 -0.032949
不 -0.356583 -0.140622 -0.035542 0.126904 -0.004011 0.183445 -0.008966 -0.204665 -0.259166 -0.162559 -0.124511 -0.139691 -0.020262 0.380952 0.226968 0.196558 0.020117 -0.029045 -0.126351 0.236454 0.138159 0.043923 -0.277176 -0.275790 -0.388842 0.258626 0.042036 -0.048305 -0.005533 0.004786 0.176158 0.127898 0.223932 -0.140263 0.171904 -0.152788 -0.181702 -0.088581 0.126013 0.283477 0.029639 0.127381 -0.008452 0.128211 -0.100373 0.021709 -0.430611 -0.238015 -0.257594 0.019065 0.098847 0.102749 -0.018995 -0.078771 0.120396 -0.121787 -0.228069 0.130266 -0.144962 -0.110208 0.028639 0.117021 0.017372 0.177731 -0.024480 0.198019 0.068061 -0.083426 -0.021134 -0.220349 0.192266 -0.020683 0.048273 -0.388621 -0.202141 -0.275075 -0.046027 0.030536 0.071277 -0.186210 0.071106 0.073587 0.192754 -0.043740 -0.264793 -0.144533 0.206202 0.066858 0.041753 -0.050576 -0.171716 -0.026889 -0.098021 -0.228579 0.147146 -0.217337 0.165747 0.009592 -0.200475 0.260100
7 0.091594 -0.262001 0.047165 -0.262650 0.177002 0.046764 -0.386659 -0.003279 -0.032395 -0.298156 -0.306289 0.137305 -0.153583 -0.156077 0.309745 0.124446 -0.092139 0.221028 -0.057509 0.130649 -0.180449 0.335445 0.206129 0.441994 -0.260819 -0.050025 0.016199 -0.080877 0.574262 0.005946 -0.273858 0.069170 0.196893 0.265478 0.114174 0.119774 0.157994 -0.414880 0.284735 -0.082617 0.242575 -0.085544 -0.010705 0.252087 -0.264612 -0.074562 0.412003 -0.221734 0.028173 0.535292 -0.061991 -0.305668 0.192110 -0.182447 0.383700 0.190720 0.230196 0.214411 0.101088 0.273448 0.028087 -0.233546 -0.044868 -0.144894 0.087084 0.128021 0.336366 -0.015687 0.105336 0.179548 0.373218 -0.204916 0.043994 -0.023374 0.032139 0.203186 -0.297976 0.241447 0.095946 -0.020364 0.117795 -0.332261 -0.021541 -0.053405 -0.180243 -0.338138 -0.040988 -0.229799 -0.091776 0.183375 0.425238 0.506644 0.174804 0.238870 -0.068635 0.053369 -0.379628 0.196141 0.254399 -0.189630
“ -0.228628 -0.019721 0.104208 -0.024360 0.014335 -0.163218 0.081376 0.193019 -0.084132 -0.076442 0.011816 0.106248 0.032166 0.083943 0.133175 -0.003659 0.059411 0.083981 0.037646 0.139911 -0.051681 -0.025775 -0.123342 -0.258864 0.084015 0.073957 -0.065231 0.190049 0.186068 -0.052757 0.043507 0.136646 -0.080497 -0.076506 -0.084199 -0.032526 0.033755 -0.062023 -0.009898 -0.217789 -0.032003 -0.166627 -0.010451 0.069387 0.263868 0.027413 0.045209 0.017854 -0.181368 -0.118309 -0.043782 -0.173138 -0.134400 0.009886 -0.100458 0.022064 -0.072146 -0.207590 0.032487 -0.300612 -0.090738 -0.057411 0.073607 0.027564 -0.095524 -0.200275 -0.119135 -0.138908 0.134823 -0.096165 0.061784 0.266948 0.038434 0.078413 -0.145203 0.130872 -0.289330 -0.237061 0.046105 -0.049909 -0.119495 -0.028453 0.120764 0.073126 0.055485 -0.174215 0.096313 -0.240976 0.268335 0.269782 -0.277179 0.179880 -0.251805 0.222378 0.115435 -0.026982 0.357130 -0.214004 0.135694 0.011326
上 -0.158840 -0.080469 -0.151565 -0.307326 -0.307633 -0.193138 0.146095 -0.103174 0.009548 -0.014020 -0.344768 -0.081923 0.068377 -0.043763 -0.009789 0.045475 0.161655 0.009980 -0.091910 -0.091734 0.192966 0.010070 -0.014639 0.161747 -0.120519 -0.020858 -0.015167 0.091088 -0.016363 -0.098451 0.002120 0.141957 0.005956 -0.226827 0.034892 0.232090 -0.153441 -0.296776 0.064086 0.067535 0.032839 -0.242891 -0.212075 -0.146381 -0.070535 0.123392 0.102861 -0.059298 -0.414017 0.160258 0.137784 0.063874 0.093238 0.223517 -0.153381 0.236986 0.196617 0.202280 0.017565 -0.178586 0.078238 -0.031906 0.064844 -0.006375 -0.154661 -0.136877 -0.018998 0.091709 -0.093386 0.248416 -0.327940 0.038565 -0.041638 0.095967 -0.090530 0.075469 0.047808 -0.022480 -0.197648 -0.226908 0.062226 0.336815 0.073311 0.052874 0.085759 -0.225710 0.044123 0.073323 -0.118498 -0.036155 0.087188 -0.042356 0.128070 -0.066143 -0.135115 -0.161504 0.000244 -0.065357 0.086429 0.305046
公 0.005009 -0.100246 -0.275634 -0.021862 0.365628 -0.038505 -0.093790 0.130251 0.183977 -0.656636 0.084552 0.008908 0.397357 -0.345358 0.210325 0.277249 -0.180493 0.140738 -0.207275 0.420329 0.124933 -0.044204 -0.029683 -0.354165 -0.152657 0.105080 -0.305391 -0.016901 0.125103 -0.099151 -0.071469 -0.226970 0.018226 0.035052 -0.388325 0.120284 -0.035217 -0.223032 -0.302551 -0.077544 -0.201478 0.103770 -0.152848 -0.184578 0.013182 0.138227 -0.315639 0.046129 -0.465863 0.305603 -0.338842 0.066737 -0.237809 0.265645 0.439067 0.468115 0.366526 0.082677 0.187138 0.036497 -0.307636 -0.271261 0.209731 -0.502941 -0.201044 -0.023077 0.043863 0.344123 -0.144731 0.327800 -0.272772 -0.070387 0.134187 -0.102819 -0.090462 0.088167 0.094618 -0.075570 0.810372 0.163336 0.383492 -0.191049 0.471200 -0.220328 0.385369 -0.286404 0.024212 0.249819 -0.379637 0.116215 0.104718 0.017584 0.226385 -0.113294 -0.167054 0.119672 -0.121647 0.485211 0.077790 -0.131530
行 0.148160 0.221784 0.008260 0.262898 -0.277068 -0.193878 -0.132490 -0.076202 -0.068846 -0.181617 -0.183004 0.481893 -0.117620 0.069369 0.047606 -0.012273 0.429237 0.131544 -0.039184 0.158283 0.123073 0.297898 0.096130 -0.048466 0.063444 0.226920 0.236082 0.101039 0.354335 0.170105 -0.128262 0.111637 0.087765 -0.048852 0.068249 0.115033 0.018984 -0.284497 0.068111 0.371171 0.083225 0.097849 -0.342949 0.256949 -0.002733 0.106965 0.036403 -0.093517 -0.029016 0.103319 -0.074686 -0.149545 -0.145662 0.142986 -0.147054 0.354200 -0.173324 -0.215657 -0.200361 -0.231584 0.031728 -0.010846 -0.392994 -0.051074 -0.047319 -0.084389 -0.422098 0.243851 -0.365150 0.093229 0.014906 -0.073684 -0.330255 -0.072213 -0.321249 0.017129 0.236115 0.051194 -0.020092 0.053225 -0.215620 0.169414 0.008104 0.057710 -0.120023 0.065055 0.031823 0.006935 -0.233400 -0.139777 -0.240848 -0.073926 0.241058 -0.264088 0.090057 0.042044 -0.080021 0.033248 0.248739 -0.085533
他 -0.121069 -0.093971 -0.142254 -0.172393 -0.205623 -0.113654 -0.090574 -0.146700 -0.330924 0.031180 -0.135912 0.160648 -0.038471 0.154911 0.125972 0.191786 -0.048325 -0.532625 -0.223848 -0.058331 -0.003418 -0.066346 -0.170509 0.230706 -0.165401 0.170391 -0.309237 0.098467 0.218284 0.020213 0.304839 -0.293668 0.002139 -0.005406 -0.133227 0.011720 -0.296650 -0.359794 0.062554 -0.082057 -0.003048 -0.213054 -0.025770 -0.021152 0.096525 -0.038115 -0.348489 -0.025768 -0.088032 -0.185821 0.078155 -0.131600 -0.001832 -0.165050 0.076964 -0.004674 -0.056981 -0.084511 0.101367 0.175784 0.070700 -0.010732 0.075693 0.081747 0.157274 -0.170538 0.038590 0.134103 -0.215272 -0.090820 0.046786 -0.155527 0.404695 0.148947 -0.077185 -0.079758 0.296747 0.098218 0.180478 -0.330884 -0.154831 -0.027368 0.159461 -0.028886 -0.285705 -0.175386 0.202699 0.214798 0.049869 -0.006121 -0.159831 -0.182210 -0.044077 -0.071029 0.105185 -0.027251 0.122991 -0.138619 -0.247100 0.393242
出 -0.019978 0.052839 0.143140 0.127806 -0.167102 0.223892 0.173806 -0.031786 -0.088678 -0.270369 -0.086897 0.359631 0.041782 0.067936 -0.016665 -0.229764 0.178643 -0.254155 -0.295242 0.027181 -0.056674 -0.010287 -0.054597 0.154767 -0.363079 -0.143887 -0.062613 0.484591 0.150239 -0.142652 0.088630 -0.227492 -0.003241 -0.247290 -0.045284 0.013850 -0.457383 -0.318331 0.235995 0.173285 0.216246 -0.396659 -0.177692 0.314275 -0.085606 0.022448 0.183105 -0.311828 -0.054623 0.037256 -0.254909 -0.144547 -0.155997 0.122474 -0.077837 0.201416 -0.037255 0.163188 -0.010321 -0.080972 -0.058754 -0.073478 -0.034989 -0.043462 0.166365 -0.069132 0.021328 0.017847 -0.355953 0.027781 -0.003269 0.114456 0.011577 -0.085795 0.175099 0.231335 0.035554 0.030084 -0.015635 -0.048349 -0.151957 0.046234 -0.086091 0.073910 -0.129317 0.186575 -0.233072 0.133695 0.095008 0.048125 0.065769 0.051490 0.133490 -0.019570 -0.066305 -0.138575 0.176467 -0.250671 -0.156860 0.097497
之 -0.021035 0.065091 -0.045490 -0.027713 -0.125715 0.045345 -0.068627 0.002586 -0.333201 0.085880 -0.154588 0.055370 -0.045227 0.087484 -0.035029 0.050757 0.055502 0.121844 0.213576 0.051680 0.275129 -0.229953 -0.055226 -0.212162 -0.121893 -0.085810 0.010403 -0.048438 -0.158979 -0.138437 0.067905 -0.162330 0.097042 -0.033482 0.096708 -0.087462 0.075204 -0.254093 0.009460 -0.077108 0.138634 -0.052569 -0.105707 -0.024650 0.252705 -0.043196 -0.226291 0.143243 0.104634 0.055172 -0.147163 -0.029697 -0.211391 -0.223656 -0.152914 0.115314 0.135819 0.040370 0.180759 -0.059581 0.054305 0.058136 0.030686 -0.240826 -0.033222 -0.155769 0.049933 -0.045062 -0.181071 0.144854 0.025790 0.059734 0.139950 -0.005252 0.017935 -0.045272 -0.049876 0.028038 -0.126818 -0.090374 0.012022 -0.111381 0.175743 -0.000404 -0.053883 0.202864 -0.248958 -0.075561 -0.156028 -0.073190 -0.075328 -0.234621 0.036735 0.073713 0.265140 -0.011939 0.160457 0.153281 -0.119918 0.037315
部 -0.027506 -0.084100 0.250643 0.242812 0.067939 0.057525 -0.202767 0.143295 -0.460580 -0.083816 -0.313894 0.176318 -0.345432 0.068141 -0.063614 0.105988 0.071818 0.268031 -0.008425 0.186660 -0.043622 -0.298609 0.350787 -0.207228 -0.097811 -0.300748 -0.051826 0.159546 -0.093600 -0.087823 0.535590 -0.244343 0.255303 0.234734 0.063687 0.083854 -0.327260 -0.126306 -0.106989 -0.057594 -0.238310 0.075106 -0.217059 0.353539 0.004958 -0.033934 -0.066643 0.067901 0.072131 -0.449492 -0.147198 0.162987 -0.015430 -0.307796 -0.199753 0.067172 0.326501 -0.257625 -0.061647 0.508042 0.093881 -0.056655 0.200546 -0.269564 0.216417 0.090780 0.225901 -0.149982 -0.189580 -0.260382 -0.490070 -0.060479 -0.055103 -0.270246 0.261162 0.064219 -0.094227 0.201546 0.171075 0.012736 0.219593 0.002353 0.175365 -0.173970 0.329439 -0.162674 0.252002 -0.133253 -0.265459 -0.147439 -0.185603 -0.096226 0.068352 -0.234364 -0.069848 -0.238715 -0.241134 -0.259416 0.334870 0.053163
与 0.230726 0.123710 0.023445 0.185200 0.080467 -0.030546 0.110774 -0.166020 -0.146499 0.119127 -0.093512 0.100793 0.124218 0.174404 -0.181107 0.247246 -0.005236 0.014899 0.157744 0.073314 0.160099 -0.039054 -0.042972 -0.218942 -0.064539 0.157546 -0.101824 0.117863 0.036970 0.063345 -0.169510 0.024459 0.207249 -0.014417 0.046568 -0.129054 0.045740 -0.052235 -0.068782 -0.093228 0.044179 -0.235064 0.072510 0.134589 -0.199143 0.092984 -0.089935 -0.137450 0.045421 0.009876 -0.047792 0.015019 -0.011162 -0.164161 0.027493 -0.002442 0.047185 0.000161 -0.116289 -0.011513 -0.108609 0.024165 -0.099133 -0.151278 -0.090790 0.045810 0.162376 0.074140 -0.039166 0.089718 0.061358 0.040848 -0.051832 0.190402 0.152359 0.041012 0.153022 0.052783 0.042266 0.037561 0.013178 0.032284 0.014655 0.099682 0.142000 0.067489 0.089515 0.000168 -0.209606 -0.041837 -0.170464 0.028579 0.062538 -0.080314 0.024548 -0.055580 0.111629 -0.169726 -0.048095 0.083085
其 0.121817 0.141917 -0.236990 -0.042113 0.086943 0.131178 -0.097855 -0.304784 -0.337312 0.136766 -0.226865 0.384368 0.146348 0.075176 0.006419 0.160691 0.174976 -0.143335 0.046454 0.029843 0.235206 -0.201917 0.114915 -0.006132 -0.066630 -0.130653 0.065842 0.144921 -0.245985 -0.272192 0.048557 0.082226 0.061721 0.000907 -0.094528 0.178876 0.224753 0.049196 0.381303 0.088618 0.056180 0.093480 0.092557 0.045641 0.138993 -0.080276 -0.434143 -0.223781 -0.006172 -0.336848 0.001231 0.039281 -0.052860 -0.215876 -0.108008 -0.206958 0.158698 0.074071 0.117116 -0.027611 -0.065526 0.061178 0.391208 -0.034539 0.329862 -0.149167 0.088216 0.354185 -0.024354 0.247165 0.173616 0.078010 0.126764 0.150909 -0.046627 0.174741 -0.167867 0.257323 -0.001890 -0.096421 0.114407 -0.143042 -0.069553 -0.059702 -0.040964 0.137744 0.014764 0.212752 0.261344 0.018096 -0.169746 -0.219408 -0.259602 0.174839 0.109133 -0.081022 -0.173411 0.056123 0.101881 0.072386
发 0.021474 -0.138327 -0.007836 0.309235 -0.209766 0.346099 0.047387 -0.062941 -0.169506 -0.166612 0.145464 0.088696 0.026378 0.105274 0.038763 -0.121342 0.096053 -0.187962 -0.347852 0.128926 -0.042019 -0.031544 -0.056423 -0.164019 -0.142546 0.285520 0.048310 0.296735 0.234290 -0.173890 0.107947 -0.271187 0.105474 -0.344965 -0.197465 0.309883 -0.237194 -0.039572 -0.187180 0.230110 0.317822 -0.132143 -0.451071 -0.121729 0.061779 0.415675 -0.020501 -0.218568 -0.029288 0.190243 -0.390961 -0.116476 0.028205 -0.080802 -0.087063 0.301262 0.204708 -0.346585 -0.076325 -0.346962 -0.186975 -0.133339 -0.204874 -0.035040 0.325614 -0.239367 0.239942 0.075943 0.113938 0.157372 -0.062040 -0.039986 0.003581 0.224069 -0.006116 0.356238 -0.118624 -0.021801 -0.070907 -0.113612 0.045414 -0.134505 -0.081735 -0.110049 -0.114754 -0.073133 -0.270278 0.155550 -0.439188 0.115763 -0.188979 -0.203700 -0.076120 -0.157972 -0.288827 0.028448 0.237189 0.133740 0.092572 0.060478
生 0.047405 0.396179 -0.394420 -0.047378 0.250215 0.284224 -0.120830 -0.240117 -0.257879 -0.211417 -0.041647 -0.010397 0.014746 0.350039 0.078075 0.002220 0.014450 -0.119009 0.157511 0.141588 0.315591 0.261863 0.117700 -0.338475 -0.394893 -0.105688 0.019748 -0.033960 0.041851 -0.033490 0.338687 -0.418202 0.236350 -0.000590 0.183570 -0.006757 -0.017924 0.159049 0.029284 0.654885 0.070918 -0.083084 0.206557 -0.361253 -0.041713 0.033751 -0.073543 -0.280501 -0.188190 0.060649 0.007622 -0.108229 0.146019 -0.209075 -0.022640 0.106545 -0.110495 0.096970 0.173397 -0.076363 0.211739 -0.023089 -0.106213 -0.013989 -0.037677 0.171295 0.058287 0.244531 -0.186128 -0.227857 0.153801 0.232747 -0.112362 0.308437 -0.179952 0.340725 0.291062 -0.215540 -0.118882 -0.219552 0.055700 -0.362267 -0.105171 0.038204 -0.301194 -0.166443 0.021145 -0.055359 -0.064041 -0.317775 -0.279956 0.018645 0.098345 -0.110019 -0.059767 -0.372933 0.040361 0.413773 -0.071301 -0.075491
主 0.334346 -0.110504 -0.575440 0.005995 -0.213003 0.132888 0.111329 0.106296 -0.054897 0.151767 -0.071951 0.038559 -0.009556 -0.161137 -0.130637 0.363867 -0.040824 0.288748 0.318866 0.142104 0.452591 -0.076016 0.315818 -0.245458 -0.026768 0.002199 -0.490813 0.557189 0.263972 -0.050510 -0.234889 -0.252879 -0.149709 -0.047024 0.290776 -0.054738 0.197665 -0.068777 -0.091661 -0.132614 0.287119 -0.018988 -0.079773 0.447268 -0.260831 -0.237178 0.108117 -0.016068 -0.047765 0.170379 0.137636 0.083910 0.054753 0.002526 -0.112446 0.479067 0.251565 0.135516 -0.132979 -0.184631 -0.258497 -0.008181 0.206640 0.105817 -0.127425 0.019834 -0.060688 0.258185 -0.267415 -0.174884 -0.065375 -0.203282 -0.081016 -0.137400 -0.142627 0.283634 0.035847 0.172911 0.255589 0.169121 -0.087974 0.052830 -0.037709 0.279884 -0.569340 -0.026259 0.240619 -0.010837 0.270427 -0.192681 -0.194619 0.120167 0.044122 -0.149517 0.331594 0.210334 0.601472 -0.240407 -0.117528 0.140933
斯 0.090120 -0.380101 0.228607 -0.084559 -0.331850 -0.146730 -0.243394 0.063100 -0.132490 0.134364 0.076243 0.040110 0.072444 -0.233022 -0.227097 0.411489 0.227468 0.010487 -0.049814 0.088912 0.263665 -0.013486 0.534466 -0.086732 -0.035025 0.110244 -0.090398 0.231574 -0.170226 0.369725 0.033816 0.045871 0.143969 -0.090311 -0.248075 0.099548 -0.078739 -0.140844 -0.200568 -0.182449 -0.451618 -0.391762 -0.437473 -0.017543 0.077856 -0.506733 -0.246658 -0.223655 -0.221893 -0.142801 0.069979 -0.040463 0.095144 -0.008222 0.072319 -0.024296 -0.135179 0.464801 -0.364952 -0.047447 -0.064044 -0.132937 0.152555 0.059870 -0.051629 0.338853 -0.136289 0.023952 0.211393 -0.388579 0.061190 -0.031873 -0.105286 0.208480 0.210939 0.229360 0.096865 0.110100 -0.019041 0.118614 0.122211 -0.256142 0.359502 -0.263287 0.208171 0.009040 -0.220923 0.054992 0.138381 0.131988 -0.159098 0.158692 -0.233983 0.331720 -0.162966 -0.513262 -0.005508 -0.214055 0.017183 0.206746
作 0.016151 -0.184911 -0.167191 0.051525 0.091680 0.259135 0.157270 0.041721 -0.094155 0.045878 -0.269491 0.268197 0.164710 -0.023640 0.093958 -0.144790 0.127892 -0.167102 0.047985 0.138744 0.232161 0.175975 0.049669 -0.100985 0.067018 0.003919 -0.165801 0.052292 0.282174 0.099667 0.010998 0.009499 -0.298843 0.167886 -0.010133 0.098203 0.145283 -0.200906 0.005376 -0.112087 0.226602 -0.151806 0.223386 0.281057 -0.157140 0.289744 -0.250930 -0.144352 -0.296209 -0.115964 -0.203292 0.313504 0.052638 0.166433 -0.319831 0.138798 0.002856 -0.352051 0.255298 0.060787 -0.268062 -0.028435 -0.200047 0.016110 -0.045310 -0.013371 -0.008868 0.139741 -0.358225 -0.247268 0.258019 -0.276285 0.175321 0.130235 -0.153298 -0.027583 0.069818 -0.136834 -0.203125 -0.106631 -0.322288 0.020835 0.478925 0.408727 -0.165747 0.147983 0.114491 0.072959 -0.363438 -0.083532 -0.741671 -0.024222 -0.112726 0.411108 0.182992 0.060167 -0.095150 0.049049 0.029123 -0.045078
分 0.146445 -0.441047 -0.265515 0.178512 0.538423 -0.060733 -0.288623 0.098221 0.052327 0.219952 -0.225541 0.149147 0.169452 -0.009454 0.384066 -0.339499 0.012096 -0.042108 -0.049659 0.049257 -0.180376 -0.205772 -0.170809 -0.067242 -0.170260 -0.197759 0.159253 -0.060108 -0.264176 -0.401658 0.326782 0.000686 0.191767 0.034292 -0.210231 0.180295 0.058683 -0.186081 -0.180562 0.368692 -0.011602 0.109142 -0.002213 0.145684 0.101745 -0.306396 0.096859 -0.078838 -0.594794 0.083182 0.212111 0.146780 0.035992 -0.162818 -0.242783 0.301531 0.337202 -0.055482 0.061237 0.013807 -0.351914 -0.109165 -0.294936 0.215195 0.192488 0.075343 0.183565 0.227711 -0.417683 0.252330 -0.133646 -0.062852 0.213868 -0.042229 0.225353 0.103698 -0.322372 -0.172464 -0.082686 0.387962 -0.255291 -0.152771 -0.171056 -0.164521 -0.239222 -0.236459 -0.086865 -0.146094 0.315533 0.167746 -0.118409 -0.042535 0.519376 -0.133540 0.203743 -0.086746 0.023201 -0.050059 0.076832 -0.021473
方 0.068763 0.185986 -0.288411 -0.025061 0.019551 -0.497062 -0.421169 0.259614 -0.211696 -0.588078 0.072421 0.275415 0.060213 0.056615 0.379001 0.370787 0.128716 -0.282185 0.063630 0.352279 0.094928 -0.292446 -0.246748 0.205761 -0.108830 0.102104 -0.276199 -0.241774 0.228669 -0.367101 -0.154977 -0.099573 -0.004780 -0.576229 -0.113590 0.111435 -0.159077 -0.352078 -0.091527 -0.261120 -0.548370 0.200580 0.172161 0.178697 0.029280 0.196094 -0.180668 -0.281879 -0.218099 0.020893 -0.251038 0.337538 -0.033118 0.020629 0.114866 0.122369 -0.160747 0.299449 -0.117051 0.206665 0.048528 0.027990 -0.051525 -0.130685 -0.145710 0.029764 0.006311 0.149363 -0.329707 0.154927 -0.332366 -0.024603 0.105906 -0.266338 -0.009114 -0.101409 -0.163090 -0.205296 0.100757 0.176129 0.193897 -0.147292 -0.005115 -0.023835 -0.417597 0.494923 -0.497652 -0.096422 -0.317310 0.028423 0.174732 -0.132718 0.034991 -0.227613 -0.099651 -0.300468 -0.019902 -0.293962 0.028537 -0.152937
e -0.330644 -0.128674 0.299189 -0.435913 0.125735 0.165568 0.166222 0.174638 -0.126527 0.314794 -0.081350 -0.454211 -0.212743 -0.210690 0.526744 -0.234534 0.462959 -0.045381 0.169797 -0.767091 -0.546892 -0.093191 -0.366330 -0.201190 -0.034008 0.357322 0.083384 0.797957 0.558493 -0.066341 0.032437 -0.292080 0.223026 -0.414510 0.018925 -0.004545 -0.121438 0.250635 -0.316676 0.005700 0.054006 -0.312108 -0.318127 -0.032873 -0.026734 -0.177798 0.400930 -0.625827 -0.025759 -0.336100 -0.046241 0.212710 -0.176832 -0.223193 0.168296 -0.347557 -0.077688 0.187298 -0.086333 -0.400841 -0.340175 0.226479 0.082228 -0.524428 -0.899441 0.106762 -0.142659 0.519797 0.008566 0.086811 0.395747 0.488342 -0.034851 -0.227578 0.108154 -0.033528 -0.077408 -0.162687 -0.078244 0.154266 -0.430249 -0.277632 -0.297178 -0.051729 0.160625 -0.206724 -0.211675 0.210970 -0.248021 0.129355 -0.344584 -0.227488 -0.399954 -0.010151 0.505670 0.776882 -0.694959 -0.060652 0.821867 -0.086747
到 0.111953 -0.076118 -0.062457 -0.286399 -0.088244 0.125253 -0.048060 -0.260903 -0.187773 -0.097350 -0.296752 0.138192 0.151584 0.189221 -0.187150 0.024696 -0.287599 0.022598 0.057225 0.332419 0.071126 -0.134976 -0.240501 0.163173 0.024412 0.210797 -0.389176 -0.176673 0.174292 -0.001547 0.114801 -0.181476 0.087061 0.082017 -0.006810 -0.165866 -0.257829 -0.272447 0.034140 0.254188 0.065025 -0.267439 -0.168982 -0.129376 -0.038118 0.009615 -0.079447 -0.253713 -0.214330 -0.145636 0.214595 0.087677 -0.162748 -0.024082 -0.066981 -0.185769 0.075316 0.126316 -0.153433 -0.054994 0.164213 -0.128060 -0.291678 0.247895 -0.055318 -0.358087 0.124659 -0.167344 0.294069 0.090112 0.093017 -0.145712 0.227727 -0.276637 0.062408 0.009494 -0.019737 -0.046331 0.013209 0.011298 -0.280914 -0.026928 -0.061221 -0.153968 0.218730 0.074396 -0.151087 -0.136590 -0.018009 -0.309783 0.178315 0.320933 -0.037053 -0.184211 -0.106852 0.088172 -0.084968 -0.018277 0.051902 0.270763
用 -0.136444 -0.066075 -0.084215 0.151476 0.156329 0.082425 -0.124720 0.042320 -0.256934 0.052020 -0.296068 -0.280598 0.224015 0.219607 0.196431 -0.090854 -0.325140 -0.212554 -0.321170 -0.014740 0.308179 -0.253202 -0.134746 -0.022314 -0.159771 0.127029 0.009413 -0.037819 -0.136637 -0.328352 -0.018932 0.244269 -0.036944 0.040655 -0.278233 0.084486 -0.006594 0.034215 0.123374 0.249040 -0.027429 -0.460501 0.084899 0.134972 -0.366349 -0.102551 -0.006854 -0.305774 -0.004076 0.477307 -0.286567 0.007554 -0.166938 0.318380 -0.288319 -0.051415 -0.048362 -0.089268 0.090794 -0.261609 0.098186 0.061014 0.036591 -0.162823 -0.001048 0.028051 -0.153473 0.236410 -0.441803 -0.171323 0.083268 -0.022545 -0.204754 -0.064095 -0.120809 -0.248181 0.243120 -0.063352 0.153812 -0.073776 0.457925 0.008621 0.050626 0.081811 -0.200907 0.270149 0.097825 -0.038486 0.165533 -0.032163 -0.319790 0.134220 -0.204771 -0.043088 -0.116269 0.021142 -0.118607 -0.018749 0.206404 0.213144
区 0.095764 -0.140968 0.124944 0.255218 -0.137354 -0.011714 -0.234107 0.029240 -0.112182 0.227741 0.021406 0.295016 -0.292317 0.179017 0.009167 0.174021 0.113201 0.314001 -0.013299 0.783950 0.104940 -0.038553 0.037730 0.081340 0.092096 0.113093 0.244097 -0.245808 -0.041775 0.013277 -0.185541 -0.424706 0.001139 -0.069563 0.005932 0.103025 -0.330094 0.478738 0.070264 -0.111218 -0.125471 -0.017644 0.039668 0.387135 -0.299024 -0.156367 0.024919 0.075307 -0.273676 -0.007787 0.178522 -0.126877 -0.018140 0.167362 -0.217653 0.311752 0.398441 0.213270 0.028694 0.040373 -0.097661 0.242141 0.149558 0.119299 -0.223716 0.169103 0.058119 0.056354 -0.165988 -0.101531 -0.332897 0.136798 0.023820 0.052414 0.172158 0.087171 0.118708 0.224804 0.171562 0.236937 0.115000 -0.167628 -0.154866 -0.379759 -0.049157 0.015724 -0.079103 -0.089717 -0.186014 -0.295498 -0.169390 -0.081509 0.168005 -0.054778 0.079645 -0.056061 -0.090666 0.019083 0.183059 -0.132315
而 -0.227101 0.035734 0.076117 0.007492 -0.190174 -0.041313 0.017531 -0.177887 -0.375448 -0.027638 -0.022415 0.055135 0.146733 -0.022915 0.053000 -0.102923 -0.069872 0.087285 0.016544 0.091634 -0.020006 0.014263 0.070497 -0.013555 -0.119186 -0.038570 -0.035802 -0.023600 0.107618 0.153863 0.119221 -0.018188 -0.025986 -0.279957 0.057742 0.002148 -0.074818 -0.210046 -0.005128 0.072344 0.053400 -0.069480 -0.156037 0.229012 0.035624 -0.061201 -0.311762 -0.044895 -0.174493 0.026750 -0.211990 -0.031600 -0.119345 -0.055709 0.186727 -0.142679 0.168521 -0.065872 -0.064445 -0.032814 0.094290 0.058000 -0.033361 0.151603 -0.084554 -0.091286 -0.039890 -0.001024 0.062936 0.131282 0.185901 0.208531 0.024398 -0.262631 -0.054999 -0.110532 -0.008035 0.090600 -0.027250 0.081166 0.094255 0.191231 -0.128189 0.140784 -0.218790 -0.149792 0.119380 0.020649 -0.026600 -0.076310 -0.040073 -0.087858 -0.143088 -0.057156 0.099060 -0.261783 0.061196 0.120293 0.085315 0.340408
名 0.005437 -0.296703 0.087926 0.080598 0.114637 -0.127379 -0.253074 -0.087942 -0.201524 0.129002 -0.225186 0.199715 0.131436 0.056121 -0.066896 -0.177359 -0.044712 0.275648 0.030742 0.302066 -0.039265 0.412569 -0.210685 0.087507 -0.144979 -0.130231 -0.200864 0.244707 -0.109727 -0.120965 -0.018765 -0.082352 -0.160187 -0.302549 -0.145083 -0.294487 -0.369402 -0.305472 -0.018725 -0.031440 -0.033280 0.000656 0.246146 -0.071882 0.102215 -0.043315 -0.135644 -0.156545 -0.144695 -0.301627 0.197007 0.163807 -0.208125 -0.322723 -0.188941 0.258625 -0.126385 -0.288205 0.049901 -0.216992 0.168866 -0.075312 0.040325 -0.276144 0.221876 -0.115287 -0.304402 0.213249 -0.350578 0.127044 -0.090987 0.181932 0.105050 0.340613 -0.208081 -0.031683 0.082800 -0.066998 -0.002176 0.090642 -0.190525 0.245681 0.207502 -0.313306 0.021100 -0.200497 -0.074987 0.069819 0.022615 -0.172056 -0.132202 0.234405 -0.116100 0.217048 0.103769 0.021366 0.246858 -0.106919 0.220386 -0.277511
a -0.280229 0.092681 0.215014 -0.386674 0.164076 0.251396 -0.015025 0.011568 -0.145460 0.276675 -0.098510 -0.467305 -0.083845 -0.219929 0.497140 -0.390717 0.345366 -0.098102 0.123272 -0.709428 -0.497035 0.205732 -0.250208 -0.215508 -0.061486 0.376711 0.090884 0.846293 0.656820 0.090236 0.124916 -0.225048 0.162937 -0.406516 -0.025931 -0.106909 -0.019458 0.325180 -0.258389 -0.051572 -0.059997 -0.387610 -0.248545 0.081778 0.140350 -0.169993 0.344995 -0.743497 0.063095 -0.341327 0.049115 0.434449 -0.172235 0.014735 0.172450 -0.392134 0.069843 0.099317 -0.111741 -0.312256 -0.455589 0.240555 0.100521 -0.697540 -0.888877 0.284273 -0.048590 0.510187 0.076039 0.139800 0.325252 0.338630 0.019569 -0.044702 0.207285 -0.023932 -0.034109 -0.309936 -0.006873 0.128962 -0.305280 -0.059789 -0.326585 -0.117110 0.141829 -0.375361 -0.162232 0.078324 -0.231643 0.112060 -0.366271 -0.094290 -0.299160 0.029964 0.586238 0.810709 -0.674056 -0.013814 0.827087 -0.062645
及 0.113681 0.071849 -0.104541 0.049916 0.114020 -0.071738 -0.038527 0.045812 -0.083742 0.153841 -0.058923 -0.094801 0.119010 0.158862 -0.183127 0.249820 -0.100736 -0.088632 0.016440 -0.082442 -0.027331 -0.119078 0.101709 0.036844 -0.056091 -0.028338 -0.103846 -0.068918 0.081741 -0.164199 -0.074833 0.017468 0.056704 0.064481 0.071476 0.143340 -0.069289 0.137674 0.147507 -0.156647 0.086887 -0.377714 -0.074627 0.169363 -0.094664 0.025475 0.149957 -0.183829 -0.304968 -0.092366 -0.032979 0.093318 -0.038066 -0.140927 -0.108829 -0.132898 0.188869 0.011745 -0.091333 -0.355329 -0.363223 0.013262 -0.116091 -0.023705 -0.057697 0.027145 -0.065020 0.153205 -0.136444 0.221055 -0.073898 -0.084620 -0.134217 0.003620 0.080699 0.088891 0.093771 -0.030303 0.111695 0.163505 0.002789 0.080314 0.025156 0.189101 0.313803 0.077086 0.257467 -0.203669 -0.164034 -0.044537 -0.184980 0.009075 -0.034829 -0.063330 -0.290161 -0.116891 0.156559 -0.009871 -0.057047 0.094546
家 0.237638 -0.135848 -0.210176 -0.002943 0.183657 -0.006122 -0.014885 -0.151661 -0.042235 0.017982 -0.263454 0.062796 0.141079 -0.209149 0.115590 0.150669 -0.140499 0.028414 -0.077788 0.121200 -0.015638 0.197418 -0.124258 0.280800 0.089484 0.253677 -0.203780 0.140553 0.187738 0.268077 0.297831 -0.067054 0.162852 0.115377 0.185706 0.113641 0.132341 -0.144382 -0.130182 0.043336 0.040804 0.004860 0.101802 0.168748 -0.098973 -0.267215 -0.046648 -0.047776 -0.135484 -0.476568 -0.092514 -0.541086 0.042549 -0.211177 -0.329646 0.013069 0.243579 -0.117682 0.103846 0.373463 0.010589 -0.019112 0.170507 -0.184798 0.117967 0.148813 -0.101059 -0.274646 0.043475 0.041911 0.174074 0.287903 0.036069 -0.071829 -0.153222 0.123532 0.154743 -0.096261 -0.012919 -0.125492 0.226489 0.080517 0.170393 -0.046806 0.183302 0.089433 0.157849 -0.069487 -0.480986 -0.237563 -0.445698 0.008474 -0.104439 -0.220520 0.088906 -0.134632 0.085704 -0.349672 -0.058745 -0.007665
位 -0.012975 -0.220659 0.026033 -0.217527 0.250563 -0.070030 -0.245541 -0.205733 0.080507 0.620311 -0.546622 0.519317 -0.099661 0.107699 -0.129136 0.211153 -0.375917 0.454833 -0.240677 0.395666 -0.174292 -0.436155 0.407474 0.192373 -0.034535 -0.221182 -0.488135 -0.111768 -0.225366 0.234748 -0.015462 -0.242252 0.282414 -0.457082 0.429665 0.142543 -0.011950 0.137573 -0.134049 -0.118139 -0.487206 -0.092068 -0.022034 -0.019004 -0.105012 -0.594391 0.128211 0.212877 -0.076260 0.132882 -0.124600 0.236996 -0.108784 0.109868 0.080901 0.049081 0.184421 0.109261 0.290165 -0.041998 0.268865 0.294882 0.017746 -0.479678 0.559855 0.277122 -0.186110 0.002024 -0.258116 0.012733 -0.279198 0.275506 -0.276377 0.007699 -0.117472 -0.065227 0.310829 -0.507013 -0.027568 -0.051816 0.169911 -0.098209 -0.074478 -0.221918 0.155179 -0.373095 -0.179329 -0.013433 -0.056360 -0.311722 -0.018212 -0.157419 0.204852 0.011205 0.414451 -0.017357 0.431351 0.119410 0.038783 0.107421
由 -0.025542 -0.105137 0.145323 0.241367 0.434933 0.141354 0.081797 -0.041108 -0.076864 0.158237 -0.236974 0.359742 0.116468 -0.152299 -0.051529 0.128476 0.010692 0.240777 -0.003675 -0.116655 -0.078573 -0.162170 0.164021 -0.273607 -0.176097 -0.007334 -0.013681 0.069177 0.078367 -0.157589 -0.158573 -0.042719 0.221033 -0.090880 -0.004187 0.073444 -0.030793 -0.160931 -0.023509 0.109607 -0.070319 -0.321392 -0.214934 0.039316 -0.204892 -0.089685 -0.055981 0.139402 -0.001389 0.147430 -0.149263 0.048515 0.133355 -0.151782 -0.007268 0.105061 -0.000356 -0.085008 -0.141074 -0.002408 -0.104752 0.092858 0.092648 -0.104872 0.162952 0.082880 0.055941 0.080943 -0.210673 -0.214856 0.024427 -0.077034 0.033964 0.002246 0.043184 0.210347 0.184961 0.014298 0.061361 0.041178 0.010394 -0.035319 -0.151666 -0.057626 0.006699 -0.079361 -0.132839 0.056520 0.061783 -0.305588 -0.221764 -0.024898 0.215301 -0.008102 0.059388 0.081933 0.000569 -0.141144 0.070851 0.117952
这 -0.407170 -0.327943 -0.232472 0.027891 -0.056678 0.115391 -0.034817 -0.631917 -0.039629 0.050161 -0.154921 0.170645 0.278674 -0.103781 0.262484 -0.067536 0.118096 -0.144803 -0.261008 0.203536 0.146723 -0.323545 0.094426 0.021053 -0.138191 -0.057100 0.042735 -0.026903 0.089568 -0.308797 0.066908 0.155499 0.278829 -0.278191 0.117054 0.036550 0.180450 -0.225948 0.235567 -0.070157 -0.132989 -0.179069 -0.018038 0.077511 0.013664 0.050374 -0.231723 -0.341868 -0.298283 0.144454 -0.114619 -0.171944 -0.025502 0.117031 0.237550 0.151286 0.166946 -0.003333 0.036463 -0.032439 0.208840 -0.006155 0.059335 0.331794 -0.121555 -0.361051 -0.304700 -0.026838 -0.196630 -0.225966 0.003721 -0.103016 0.366702 -0.234992 -0.506458 0.062853 0.192672 0.033585 0.023479 -0.162063 -0.237801 -0.074029 -0.308649 -0.237578 -0.146648 0.042440 -0.177271 0.329765 0.073969 -0.004319 0.104653 -0.016812 -0.065175 0.071772 0.016128 0.092641 0.148243 -0.119755 -0.032231 0.515408
被 0.073929 -0.106876 0.273879 -0.138339 -0.062918 -0.123389 -0.127618 -0.286680 -0.457277 -0.253854 -0.141031 0.099820 0.219870 -0.212607 -0.117444 -0.058488 -0.193809 -0.044591 0.092287 0.188723 -0.044009 -0.227843 -0.064275 0.105296 -0.154732 0.109094 -0.319971 -0.157692 -0.124536 -0.110285 0.118591 -0.048253 -0.047264 -0.056229 -0.086419 -0.091072 -0.066864 -0.239727 0.099436 0.049175 0.158937 -0.272834 -0.062248 0.187205 0.048330 -0.017712 -0.137718 -0.107168 -0.271835 0.030170 0.012333 -0.089730 -0.180523 0.111537 -0.030498 0.058345 0.051188 0.071340 -0.094160 -0.152397 -0.062155 -0.091449 -0.182348 0.140416 0.108310 -0.180020 -0.158469 -0.010978 -0.061927 0.070676 0.074313 0.057897 0.073301 -0.037451 -0.091056 0.159838 -0.078792 -0.008774 -0.121684 0.013897 -0.101362 0.309755 0.013513 -0.215676 -0.244393 -0.087893 0.159538 0.027002 0.112764 0.021192 -0.092743 -0.058113 -0.251263 0.050954 0.323483 0.134437 -0.182221 -0.104099 -0.112567 -0.000497
下 -0.178779 -0.045541 -0.010551 -0.255730 0.034049 -0.244455 0.145983 0.038130 -0.076056 0.032451 -0.224527 0.130057 0.037053 0.280147 0.032359 -0.020433 -0.056053 0.102523 -0.006638 0.196834 0.208180 -0.001464 0.017985 0.208290 0.123522 -0.041038 0.051556 -0.019206 0.151523 -0.174360 0.274774 -0.014100 0.007773 -0.066856 -0.093202 0.309888 -0.048015 -0.000758 0.456313 0.240797 0.002498 -0.205193 -0.142260 -0.114721 -0.026539 -0.170888 -0.130242 -0.153063 -0.267923 0.094102 0.121539 0.014304 0.114380 0.047573 -0.053248 -0.141378 0.141389 0.048484 0.237172 0.059940 0.009590 -0.091401 0.063411 0.015946 -0.169183 -0.091230 -0.173140 0.098201 -0.172013 0.316778 -0.152096 0.219484 0.369735 -0.189755 0.112812 0.102129 0.071361 0.180724 -0.193548 -0.058038 -0.147999 -0.114923 0.137510 -0.018709 -0.089408 0.017844 0.022848 -0.219877 -0.164847 -0.047460 -0.025254 -0.168745 0.121156 -0.234253 -0.199318 0.031008 0.040420 -0.008681 -0.100192 -0.055657
军 -0.035091 0.042660 -0.083571 -0.080786 0.009866 -0.164789 -0.089456 0.064629 -0.164569 -0.115353 -0.025054 0.176624 -0.135374 -0.231017 -0.107129 0.149031 -0.008300 -0.025728 0.351404 -0.052233 0.562177 0.012534 0.166487 0.089242 -0.018622 0.277857 0.284264 -0.097719 -0.044971 0.220534 0.365555 0.176115 -0.105412 -0.159961 -0.106472 0.008571 -0.232202 -0.310366 -0.203801 0.064549 0.105705 -0.071078 -0.164176 0.136237 -0.403129 0.182974 -0.289821 0.032659 -0.045905 0.034612 0.495747 0.157927 0.369445 -0.134305 -0.208319 -0.051494 0.047411 0.132596 0.388631 0.365237 -0.117601 0.114214 -0.163489 -0.313921 0.262918 0.000826 -0.292184 0.100487 -0.230904 0.250636 -0.101026 0.010384 -0.299900 -0.117224 0.110047 0.116107 -0.173647 0.262622 -0.128397 0.459618 -0.095701 0.012758 -0.213983 -0.568280 0.151378 0.176009 0.426704 0.225766 -0.330661 0.082548 0.257017 0.090468 -0.122370 0.155568 0.203604 -0.035908 0.343461 -0.186245 0.139026 0.076936
第 0.106751 -0.503508 -0.239119 0.240368 0.061256 -0.129658 -0.061235 0.205183 0.143142 0.115041 0.176872 0.207374 0.054943 0.279721 0.040575 -0.274778 0.179847 0.592999 0.325508 0.304230 0.154771 -0.033459 0.146801 0.675856 -0.315761 -0.564357 -0.046385 0.198911 -0.023408 -0.160994 0.595825 0.123344 0.339359 -0.130021 -0.284287 -0.171274 0.076763 -0.313900 0.136322 0.134851 0.027536 0.286165 0.156217 -0.255322 0.026168 -0.139039 0.315760 -0.126622 0.039550 -0.020544 0.023420 -0.220615 0.204670 -0.320728 -0.190540 0.300870 -0.010837 -0.265307 0.496744 -0.360918 0.205844 0.096951 -0.282953 -0.219441 -0.104016 0.071345 -0.690031 0.485385 -0.146359 0.091881 -0.362236 -0.069107 0.137148 0.237583 -0.031275 0.456560 0.225634 -0.023190 0.189670 0.259603 -0.311472 0.085105 0.219741 -0.141173 0.232516 -0.263387 -0.405713 -0.058192 0.010165 -0.093981 0.134406 0.580041 -0.024530 0.131625 0.322471 -0.189338 -0.240858 0.164537 0.127908 0.188662
尔 0.053943 -0.312695 0.173555 -0.003112 -0.161764 -0.044608 -0.175068 0.095020 -0.270487 0.266829 0.164157 0.122620 -0.071202 -0.016724 0.032036 0.311254 0.356559 -0.000774 -0.219637 -0.096876 0.147217 -0.045996 0.452519 -0.127018 0.133047 0.079361 -0.184993 0.197407 -0.244012 0.383996 0.044094 -0.111536 0.242043 0.087393 -0.156077 -0.005001 0.036217 -0.347210 -0.315177 -0.146241 -0.395167 -0.399599 -0.184210 0.139581 0.269449 -0.561209 -0.220358 -0.069091 -0.193811 -0.070752 0.364337 -0.091585 -0.006920 -0.084423 0.197677 0.077972 0.029383 0.618259 -0.299973 -0.039686 -0.090174 0.054348 -0.050003 0.093006 0.007681 0.254017 -0.208219 -0.140060 0.224979 -0.294785 0.132414 -0.123307 -0.001661 0.266548 0.262011 0.312347 -0.001209 0.184896 0.063850 0.243926 0.243060 -0.268440 0.418102 -0.098754 0.073848 -0.039733 -0.249506 -0.275783 0.063368 -0.002805 -0.189876 -0.044463 -0.186330 0.257726 -0.070854 -0.387963 -0.001212 -0.240372 -0.002338 0.064687
西 0.074872 -0.044026 0.116517 0.344962 0.070574 0.102948 -0.179119 0.217003 0.006883 0.000830 0.027417 0.353004 -0.155514 -0.193116 -0.288117 0.153597 0.277689 -0.040492 -0.145272 0.365290 0.114104 0.117316 0.248472 -0.004902 -0.093917 -0.026256 -0.319402 -0.499746 0.205523 -0.001465 0.225145 -0.095089 -0.039891 0.075496 0.206463 -0.002563 0.327419 -0.072952 -0.350994 -0.176142 -0.647267 -0.153131 -0.210421 0.064315 -0.086607 -0.418731 0.126191 -0.044552 0.091549 -0.172022 0.218039 -0.176012 0.084985 0.114056 0.159390 -0.299081 0.052461 0.083018 -0.038807 -0.009856 -0.111477 0.423922 -0.213886 -0.111625 0.186082 0.219350 0.262238 0.262590 -0.169728 0.087240 -0.121590 0.121731 0.093925 -0.165462 0.305066 0.173329 -0.236767 -0.320219 0.129323 -0.050066 -0.007429 0.009375 -0.002843 -0.025633 0.050738 0.014655 -0.201371 -0.106692 0.035670 -0.488254 -0.111134 -0.118262 0.143196 0.116521 -0.069320 -0.175919 -0.006698 -0.331523 0.093171 0.395585
法 -0.045876 0.046682 0.227018 0.221226 0.114463 -0.216952 -0.152238 -0.036460 -0.119772 -0.018134 -0.220520 -0.103360 0.040920 -0.295865 0.027321 0.274201 0.107316 0.175043 0.097227 0.282117 0.167869 0.032975 -0.176848 0.023487 0.170881 -0.129554 -0.164078 0.370362 0.046258 -0.191909 0.384830 0.198965 -0.045942 -0.185132 0.070544 0.128424 0.036256 -0.075966 0.093627 -0.239095 -0.335110 -0.169690 0.007781 0.050891 -0.182225 -0.027349 -0.269553 -0.037436 -0.374516 -0.173023 -0.070104 -0.277246 -0.012718 -0.016373 0.233530 -0.042828 -0.184983 0.029340 -0.360528 0.093637 -0.069610 0.224798 -0.058458 -0.184254 0.222419 0.163762 -0.108997 -0.031013 0.013543 0.048416 0.145076 -0.238871 0.041474 -0.277977 -0.518864 0.298323 0.112015 -0.239307 -0.024694 0.068947 -0.209440 -0.071437 0.160976 -0.067682 -0.009091 -0.002001 0.366137 -0.100918 -0.251430 -0.148132 -0.062396 0.032455 0.115201 -0.204098 0.150282 -0.292296 -0.025788 0.016262 -0.030367 0.100070
来 -0.256737 0.080111 0.038245 -0.071862 -0.163828 0.111641 -0.005294 -0.234576 -0.381169 0.034263 -0.060784 0.163500 0.023860 -0.051891 -0.079311 0.127279 -0.082838 -0.118816 0.001035 0.176302 0.092195 0.039469 -0.124336 0.003922 -0.125617 0.115471 -0.039440 -0.141594 0.226615 -0.123528 0.129248 -0.036113 -0.042685 0.146026 -0.241194 0.242453 0.059594 -0.066364 0.116571 0.115672 -0.102183 -0.247102 -0.043334 -0.058319 0.219283 0.042140 -0.140285 0.017011 0.013265 0.005959 0.089704 -0.032644 -0.058809 -0.228981 -0.122994 0.017743 -0.108151 0.009045 -0.200373 -0.119141 -0.200973 0.288759 -0.024833 0.113961 0.222111 -0.486653 -0.036134 -0.082964 -0.126269 -0.083477 0.085865 -0.065480 0.067309 -0.126648 -0.073697 0.008027 0.071135 0.021620 0.190810 -0.032440 -0.048537 0.065758 0.015568 0.095441 0.190085 0.012559 -0.131394 -0.112304 -0.021261 -0.174681 -0.141230 -0.104996 0.115153 -0.008051 -0.013134 0.028461 0.118961 0.040912 0.191073 0.378077
》 0.158967 -0.272152 -0.119988 -0.072398 -0.017138 -0.078248 0.099694 0.074590 0.102440 -0.155906 -0.071384 -0.016371 -0.004524 0.170155 -0.067513 0.094007 0.003793 -0.001877 -0.152541 -0.224121 -0.184905 -0.087515 -0.089727 -0.427883 0.020111 -0.292697 -0.288489 -0.283594 0.036312 0.213769 0.172031 -0.030728 0.026075 -0.195212 0.062362 -0.029586 0.004768 -0.253483 -0.299939 -0.113317 0.384869 -0.362125 0.036808 -0.055487 0.103740 0.238975 -0.036612 -0.111713 0.066726 -0.165751 -0.374562 -0.067378 0.228150 -0.134170 -0.042032 0.124860 -0.333466 -0.129889 -0.387872 -0.060280 0.019177 0.164286 0.222115 -0.256546 -0.555694 -0.066279 -0.090796 0.176345 -0.313796 0.031389 -0.066900 0.033648 0.242131 0.048339 -0.209941 0.206926 -0.128538 -0.082169 -0.096971 0.063541 -0.162935 -0.096311 0.186954 -0.115317 0.296438 -0.009706 0.037408 0.187855 -0.005970 0.046194 -0.066001 0.112295 0.017242 0.138730 0.129229 -0.029632 0.301221 0.061552 -0.102094 0.106111
《 0.028029 -0.275326 -0.008107 0.141185 0.035166 0.070054 0.135920 -0.011291 0.127370 -0.107919 -0.171337 -0.072633 0.084125 0.043870 -0.000377 -0.152560 0.046074 0.071149 -0.038463 -0.068071 -0.027213 -0.129297 -0.066619 -0.405536 0.024688 -0.140356 -0.236417 -0.250222 0.074290 0.403100 0.023893 -0.070748 0.090506 -0.213133 0.220144 -0.107228 -0.007978 -0.276986 0.105638 0.147442 0.220526 -0.550435 0.082094 0.052276 0.172265 0.162166 -0.006345 -0.001357 0.102355 -0.226556 -0.311161 -0.176278 0.155096 -0.168959 -0.118160 0.094154 -0.224399 -0.028388 -0.253495 -0.041182 0.001628 0.267664 0.193973 -0.187237 -0.386842 -0.006549 0.058288 0.168533 -0.289982 -0.012267 0.084343 -0.020971 0.098257 0.051095 -0.250652 0.225561 -0.350362 0.007168 -0.264025 0.103575 -0.086801 -0.070905 0.296322 0.098659 0.347178 0.050706 -0.053466 -0.043322 -0.124890 0.110966 -0.136365 0.075482 0.034715 0.019442 0.046093 0.102092 0.326068 -0.088179 0.106801 0.041989
里 0.234542 -0.321920 -0.313361 -0.045821 -0.008150 0.011186 -0.496620 0.234484 0.127324 -0.059936 -0.036950 0.208795 0.205459 -0.209608 0.422417 0.028319 0.421469 -0.073846 0.285608 0.370941 0.228855 0.262768 0.268434 0.161863 -0.037449 0.177832 -0.173763 0.119082 0.002141 0.068973 -0.304040 -0.092434 0.125534 -0.293122 -0.147919 0.244995 0.212012 -0.218105 -0.488794 0.149002 -0.666928 -0.261412 0.022354 -0.126518 0.284774 -0.399769 -0.319669 -0.276230 -0.011085 0.136823 -0.359639 0.111275 -0.071409 -0.021898 0.277875 -0.167713 0.304566 0.792790 -0.091612 0.205633 -0.118898 0.031341 -0.412483 0.193852 0.107255 -0.030200 -0.026168 -0.032469 0.144048 0.019055 -0.308712 -0.216230 0.218868 0.254118 -0.216077 -0.324473 -0.133298 -0.085727 0.219964 0.470030 0.412472 0.014205 0.145261 -0.108273 0.077195 0.035301 -0.367846 0.002942 -0.198254 -0.032608 0.024693 0.193376 0.388290 0.252337 -0.241023 -0.083360 -0.028952 -0.132823 0.043282 -0.283023
并 -0.110822 0.107773 0.023712 -0.013657 -0.089726 -0.231953 0.164773 0.067633 -0.395017 -0.070169 -0.205375 0.132705 0.099024 0.017383 -0.036989 0.011689 -0.094732 0.176366 -0.105076 0.317013 -0.070870 -0.149888 -0.056549 0.180527 -0.065450 0.094424 -0.169642 -0.041838 0.058073 0.133337 0.131209 -0.076704 0.108265 -0.193168 -0.059332 0.238998 -0.140518 -0.401465 -0.126684 -0.033441 0.096202 -0.000476 -0.137091 0.352839 0.051097 -0.057078 -0.339767 -0.193095 -0.220096 0.000103 -0.112949 -0.074468 0.027180 -0.049321 0.199364 -0.091135 -0.077847 -0.128445 0.037300 -0.027447 -0.223854 -0.169728 -0.257004 0.119134 -0.082991 -0.135985 -0.207938 0.108286 0.005486 0.200871 0.144984 0.173744 0.048625 -0.126927 -0.009769 -0.013786 0.030650 -0.142690 0.099639 0.095160 0.048256 0.160313 -0.335647 0.320728 -0.237935 -0.456174 0.210914 0.037788 0.061803 -0.014857 -0.163670 -0.111297 -0.152432 0.033298 0.016721 -0.462078 -0.036803 0.156686 0.171843 0.291534
本 -0.160568 -0.057585 -0.148231 -0.048049 -0.013103 -0.028820 0.006228 -0.131477 0.043351 -0.258893 -0.032896 0.255403 0.095119 -0.268663 -0.029341 -0.307588 0.268684 0.260653 -0.117452 -0.175723 0.160003 0.001675 0.058141 0.010611 -0.324824 -0.219213 0.141997 0.095263 0.448156 -0.021847 0.264079 -0.047408 0.019708 -0.256703 0.040562 -0.122334 0.081167 -0.044640 0.150972 0.285410 0.413172 -0.295996 0.081785 0.281603 -0.356933 -0.092001 -0.141568 -0.063830 -0.442278 0.114891 -0.056415 0.082305 0.148362 -0.015883 0.224936 0.270842 0.171467 0.064193 -0.092970 -0.027230 -0.032574 0.072009 0.568959 0.010405 0.085264 -0.003303 0.084845 0.133035 -0.526941 -0.092198 0.253254 0.063857 -0.230840 0.024971 -0.009119 0.200041 -0.037209 0.063644 -0.202908 0.166747 -0.126409 0.152118 0.186212 -0.001332 0.277013 0.139353 -0.134936 0.122103 -0.016230 -0.106302 -0.030707 -0.075137 -0.022103 -0.089989 0.183005 -0.372814 0.053191 -0.127801 0.184798 0.053271
o -0.361983 0.041756 0.229745 -0.474406 0.178247 0.243474 0.169753 0.245198 -0.266706 0.456388 -0.149094 -0.300482 -0.089768 -0.270177 0.403146 -0.260360 0.515980 0.109881 0.334842 -0.821959 -0.512708 -0.024460 -0.261934 -0.194045 0.051034 0.385847 0.070965 0.766866 0.609514 -0.116781 0.097004 -0.266817 0.268167 -0.455225 -0.041983 0.046814 -0.137314 0.309176 -0.213760 -0.054002 -0.015905 -0.087513 -0.350746 0.122866 -0.000118 -0.088733 0.476666 -0.739357 -0.078073 -0.257807 0.111568 0.341278 -0.362124 -0.017230 0.310216 -0.501785 0.039557 0.180367 -0.218238 -0.488189 -0.278476 0.124300 0.149363 -0.586110 -0.857201 0.181185 0.001623 0.443540 -0.140540 0.122766 0.331087 0.340772 0.135026 -0.159670 0.031427 0.039747 -0.140586 -0.212981 -0.060136 0.145405 -0.505993 -0.193744 -0.420726 -0.025845 0.184654 -0.200216 -0.235982 0.082470 -0.235385 0.093584 -0.280505 -0.260847 -0.414784 -0.093736 0.532351 0.702547 -0.605026 0.035102 0.693765 -0.071984
长 0.181324 -0.083517 -0.281271 0.399190 0.242770 -0.104767 0.076825 0.256633 0.056424 0.028948 -0.091059 0.273848 -0.091948 -0.181423 -0.316840 -0.000820 -0.072568 0.161577 0.081204 -0.099984 0.417466 0.105653 0.037550 -0.009837 -0.220696 0.027665 0.150345 0.029392 -0.023661 -0.225276 -0.036291 -0.479237 0.348621 -0.093015 0.140552 -0.259026 -0.114788 -0.310668 0.082805 0.455114 -0.129616 -0.002990 0.120184 -0.043534 -0.060215 -0.031701 0.049118 -0.142025 0.038975 -0.070360 0.327468 0.415758 0.006192 -0.083972 -0.249289 -0.180302 0.272641 0.172857 -0.080391 -0.002322 -0.262747 -0.615959 -0.109958 0.316789 -0.295463 -0.017965 0.257267 0.101992 0.138741 -0.378527 -0.235329 -0.112671 0.074779 -0.129152 0.158165 0.238843 -0.030601 -0.234003 0.165833 0.126153 -0.118133 -0.020638 0.141030 -0.249353 0.108636 -0.031169 0.485910 0.017917 -0.160522 -0.141095 0.047853 -0.169705 0.578769 0.119536 0.092602 0.078041 -0.125970 0.148320 0.087573 -0.052509
市 0.194302 0.219348 0.344589 -0.151181 0.121945 -0.016747 0.002448 -0.061978 0.095642 -0.081798 -0.024012 0.547559 -0.235252 0.102404 0.046529 0.440937 0.238875 0.190586 -0.013564 0.698291 -0.084347 -0.287228 0.215826 0.399334 -0.206488 -0.110556 0.032087 -0.106059 -0.040076 0.256977 -0.074158 -0.181565 0.133887 0.009697 0.024627 -0.157373 -0.164731 0.295597 0.002755 0.063077 -0.175167 0.088072 -0.014519 -0.089475 -0.185922 -0.188441 0.336625 0.032019 -0.025579 0.183069 0.183058 0.013142 0.082092 0.490511 -0.199706 0.367588 0.580613 0.353948 -0.159969 -0.383348 0.163023 0.227428 0.083044 0.200776 -0.148834 0.328203 -0.180430 0.116822 -0.319323 -0.224419 -0.276143 0.189058 -0.092858 -0.266744 0.186121 0.303588 -0.157579 -0.126284 0.194662 0.051373 0.054990 -0.010150 0.048636 -0.070489 0.615221 -0.052893 -0.016839 -0.003857 -0.138351 -0.115361 -0.090147 0.030595 -0.130466 0.380528 0.137377 0.130029 0.191086 0.203679 -0.072923 -0.172471
多 -0.146550 0.070122 -0.026581 0.076668 -0.250458 0.455088 -0.121100 -0.298013 -0.031633 0.309935 -0.247356 -0.185469 0.189560 0.060583 0.074014 0.125842 -0.055744 -0.001635 -0.217438 0.414812 0.186253 0.077786 -0.079220 -0.268050 0.050566 -0.064779 -0.038746 0.153373 -0.051545 0.005201 0.313759 0.088777 0.152749 -0.111463 -0.106817 -0.169366 0.346094 -0.140853 0.014913 0.230267 -0.028634 -0.033142 0.140249 0.071779 -0.130556 0.006064 0.031266 -0.336271 -0.228869 -0.172639 0.135126 0.002583 -0.121292 0.020845 0.318420 0.205448 0.160696 -0.086100 -0.164142 -0.002014 0.031014 -0.232830 -0.400583 -0.059237 -0.029781 0.045720 -0.053027 -0.080695 -0.093416 0.094593 0.192365 -0.146556 0.226867 -0.263614 0.089468 0.147579 0.141964 0.071810 -0.000142 0.069294 0.169991 0.221944 0.069184 0.015026 0.010003 0.217130 -0.010935 0.319493 0.159366 0.111502 -0.058235 -0.167803 0.071238 0.215375 -0.277859 -0.090101 -0.026029 -0.167779 -0.088918 0.144997
民 0.369192 0.105400 -0.132729 0.267336 -0.311821 0.099944 -0.302671 0.357224 -0.174957 -0.333060 -0.000069 -0.032470 0.082768 0.160882 0.241148 0.274712 -0.213488 0.228746 0.140797 0.572764 0.046370 0.109700 -0.239818 -0.363138 0.116792 0.717610 0.288690 0.487553 -0.304735 0.006944 -0.254707 -0.073974 0.073477 -0.006949 0.023281 -0.180394 -0.040254 0.000984 0.045158 0.058619 0.261721 0.116701 0.173488 0.278457 -0.097625 -0.043797 -0.124304 -0.098258 -0.249213 -0.212445 0.166624 -0.779011 0.232648 -0.033891 0.012515 0.046511 0.129302 0.108397 -0.198515 0.431155 0.318421 -0.214786 0.360953 -0.131752 0.417269 0.212935 -0.010878 0.133006 -0.158023 0.356587 -0.011017 0.281866 -0.222251 -0.422363 -0.236637 0.770907 -0.125611 0.036422 -0.009467 0.250625 -0.100835 0.132295 0.127945 -0.031263 0.125594 0.103595 0.194152 -0.192632 0.196423 -0.416580 -0.022173 -0.153804 0.084607 0.065335 0.386459 0.138835 0.001492 -0.293277 0.013734 0.094375
对 0.027169 0.276022 -0.181124 0.179445 0.027912 -0.156007 0.000543 -0.151373 0.020665 0.086999 -0.165329 0.230755 -0.104266 0.124945 0.096300 0.239272 0.023922 -0.002906 0.082133 0.220767 0.001175 -0.194402 -0.083359 -0.289878 -0.029527 0.110933 0.036018 0.158274 0.013954 0.006899 -0.090039 -0.038687 0.115227 -0.018914 -0.058191 -0.026521 0.091138 -0.210242 0.029439 0.078417 -0.163883 -0.299138 -0.160484 0.121196 -0.125118 0.122413 -0.219407 -0.148616 -0.291137 0.144100 -0.160559 0.042757 0.020931 -0.077219 0.080833 -0.053663 0.006464 0.046654 -0.148304 -0.051700 0.099146 0.089310 -0.042560 -0.104760 0.168351 0.059486 0.145457 0.090155 -0.072038 0.028539 0.112535 0.152473 -0.220476 0.109266 -0.022487 0.056812 -0.071291 -0.017008 -0.013346 -0.002036 -0.092901 0.189763 0.068710 0.042596 -0.328330 -0.063688 0.022855 -0.098057 -0.032217 -0.028351 -0.131581 0.198884 0.066768 -0.242572 -0.001051 0.001848 0.118838 -0.138741 -0.004488 0.346267
政 0.155826 0.485950 -0.172093 0.599445 0.274390 -0.233038 -0.134212 0.250675 0.086147 -0.069938 -0.026003 0.321404 0.142384 0.061524 0.225711 0.471951 0.107134 -0.226396 0.279058 0.499381 0.502093 -0.225265 -0.093072 -0.248300 -0.028670 0.317066 0.023470 0.221551 -0.209391 0.316532 0.349627 -0.115918 0.269902 0.177286 -0.117509 0.284857 -0.015666 0.339630 0.039552 0.033257 0.332842 -0.008515 -0.216358 -0.048743 -0.410532 0.350421 0.231496 -0.278741 -0.277894 -0.099305 0.531558 -0.230236 -0.174578 -0.309844 0.076138 0.237292 0.282067 0.150606 0.027906 -0.073876 0.184491 0.293753 0.263587 0.365095 0.405792 0.253023 -0.088259 0.205133 0.059440 0.146116 -0.086988 -0.356888 0.015843 -0.506207 -0.122988 0.538556 -0.061542 0.356079 -0.135417 0.226085 -0.291324 -0.021181 0.158052 0.151068 -0.432711 -0.299075 0.094208 0.054887 -0.157768 -0.619389 0.171450 -0.294210 0.093264 0.385763 0.350878 0.131774 0.080175 0.053230 0.076732 -0.058732
可 -0.436270 -0.172356 -0.254455 0.108135 0.015846 -0.132612 -0.266748 -0.099644 -0.170021 -0.009237 -0.243071 0.057367 0.314202 0.249906 0.120035 0.251232 -0.290927 -0.113715 -0.098726 0.004605 -0.180101 -0.225498 0.003099 0.337248 -0.171008 0.016492 0.114830 -0.046655 -0.023132 -0.182461 0.497437 -0.138438 0.175158 -0.171217 -0.005614 0.171137 -0.003929 -0.048554 0.236196 0.250832 -0.067135 -0.164189 0.316230 0.116782 -0.018312 -0.024395 -0.049901 -0.383730 -0.296405 -0.125718 0.276130 0.198180 -0.005257 0.115540 -0.130552 -0.319148 0.173705 0.109567 -0.408889 -0.536098 -0.256218 -0.254221 0.008130 0.161918 -0.054626 -0.125564 0.118919 0.004336 0.190355 0.159467 0.009719 -0.480769 0.001371 -0.354506 0.082179 -0.257491 0.066792 -0.364033 0.348319 0.147769 0.181682 -0.121729 0.160823 0.289226 0.051978 0.129019 0.397412 -0.285441 0.139019 0.005410 -0.027368 -0.114574 -0.193213 -0.260334 -0.024935 -0.100577 0.031158 0.094199 -0.069855 0.248780
同 0.096637 0.208898 -0.179223 0.309084 -0.255524 -0.179467 0.231124 -0.364027 -0.040681 0.045832 -0.171480 -0.004965 0.076145 0.138857 0.490462 0.148736 -0.004708 0.053530 -0.040147 0.060114 0.061652 -0.031542 -0.454439 -0.129725 0.045528 0.062487 0.016182 0.224374 -0.077652 -0.202402 0.070655 -0.074148 0.100377 -0.039511 0.241683 -0.236358 0.058500 -0.348149 0.103111 0.073046 -0.077295 -0.140959 0.071419 0.054111 -0.248639 -0.073768 -0.204394 -0.095758 -0.129008 0.284015 -0.071745 0.019032 0.288352 -0.291293 0.097260 -0.091768 0.060644 -0.167078 0.039108 -0.126828 0.203442 -0.184346 -0.053490 -0.214774 -0.106838 -0.039377 -0.179859 -0.017495 -0.224585 -0.049036 0.129866 -0.110397 0.091406 0.031866 -0.004353 -0.059968 0.076080 -0.076746 -0.262110 -0.065001 0.025380 -0.126588 -0.117080 0.098383 -0.097616 -0.155526 -0.096302 0.084711 0.107514 -0.129970 -0.190868 -0.230567 -0.053023 0.112045 -0.151959 -0.075356 0.060433 -0.005172 0.132618 0.099958
南 -0.025358 0.044211 -0.040601 0.184061 0.222204 0.000991 0.054184 0.409582 0.163558 -0.054030 0.025429 0.324693 -0.169890 -0.210345 0.091236 0.103354 0.263020 -0.162702 -0.027352 0.508707 -0.046050 -0.054458 0.058050 -0.256261 -0.262172 0.035437 -0.019877 -0.416804 -0.157135 -0.158254 -0.004637 -0.032638 -0.060440 0.175572 0.246710 0.220655 0.239316 -0.070320 -0.394115 -0.082542 -0.467301 -0.159342 -0.206438 -0.070642 -0.067405 -0.122577 0.220624 0.002957 0.002339 -0.106223 0.013549 -0.209994 0.267063 0.002121 -0.129897 -0.201105 0.095570 0.099289 0.049021 0.101072 -0.258326 0.216426 -0.251148 -0.080650 0.086122 0.246033 -0.062844 0.268381 -0.229811 0.020199 -0.254977 0.224704 -0.092807 -0.090117 0.505317 0.179742 -0.390181 -0.363835 0.010855 0.066304 0.143171 0.173311 -0.042737 -0.251268 0.416284 -0.038984 0.142434 -0.139163 0.064909 -0.428431 0.178946 -0.130543 0.134167 0.058117 0.265878 -0.070512 -0.066742 -0.105855 0.143866 0.290473
自 0.036941 0.085406 0.087629 0.301828 -0.189804 0.086164 -0.095791 0.112909 -0.192013 0.058518 -0.125535 0.270117 0.125167 0.006383 0.113586 -0.153619 -0.053791 -0.267158 -0.221438 0.174346 0.045623 0.162690 -0.261904 -0.023935 -0.168869 0.132541 -0.126720 0.258145 0.508858 0.199107 0.279831 -0.325331 -0.129295 -0.155858 -0.320284 0.166483 0.177634 -0.277007 0.177209 0.175761 -0.052075 -0.175920 -0.216526 0.240647 -0.057783 -0.064739 -0.072214 0.122026 0.124851 -0.174664 0.154102 0.070269 0.372380 -0.146113 -0.209402 -0.177260 -0.134992 -0.102533 -0.125733 -0.072526 0.033491 0.308837 0.046116 0.432306 0.151231 -0.186922 0.006099 -0.081159 -0.090007 -0.003136 0.035552 0.177158 0.005776 -0.033324 -0.254853 -0.089059 0.186913 0.153740 0.272709 0.330737 0.007901 0.178115 0.193178 0.274489 -0.018107 -0.157148 0.049738 -0.159419 0.020614 -0.330284 0.197041 0.081935 0.062210 -0.126352 0.115057 -0.047112 0.008528 -0.012001 0.078986 -0.192265
子 -0.043169 -0.084728 -0.027068 0.154371 0.463412 0.038804 -0.127562 -0.233094 -0.027391 -0.029288 -0.008185 0.256830 0.062096 0.212047 -0.080732 0.158914 -0.059796 -0.296190 -0.163404 -0.303521 -0.073561 0.209258 0.073461 -0.171372 -0.245909 -0.011758 -0.455362 0.038493 0.341674 -0.079131 0.215614 -0.071679 0.035716 -0.150185 -0.208088 0.107746 0.254691 0.040889 0.230150 -0.114670 0.238002 0.075614 0.154401 -0.143063 0.139075 -0.171989 -0.305318 -0.182939 -0.012771 -0.237936 0.102671 -0.058530 0.116062 -0.103597 -0.273971 0.139027 0.468720 0.072510 -0.185108 0.203799 -0.009306 -0.129891 -0.158835 -0.288613 -0.093375 -0.082277 0.009650 0.025577 -0.213375 -0.093860 -0.118172 0.504157 -0.230002 -0.145830 0.041257 0.001204 0.185458 -0.193627 -0.253669 -0.252024 -0.067249 -0.143865 0.219596 0.003041 0.096114 0.010209 0.109003 0.000395 -0.277167 0.138774 0.008223 0.118998 -0.007104 -0.147999 -0.040119 -0.166512 -0.048592 -0.220431 -0.131967 0.034370
动 0.078900 0.076573 -0.140119 0.205353 -0.423760 0.186126 -0.244171 -0.065234 -0.191188 -0.194663 -0.148985 0.522011 0.130239 0.229594 0.119798 0.272086 0.053547 0.104312 -0.312025 -0.149747 0.104433 -0.302667 0.266968 0.088904 -0.018719 0.026038 -0.239761 0.253216 0.218241 -0.027165 -0.075153 0.066777 0.078946 -0.025846 0.222226 0.551970 0.023038 0.009999 -0.087550 0.321617 -0.155209 0.242591 -0.028181 -0.552359 -0.178068 -0.133469 -0.086254 0.098277 -0.277433 -0.151391 -0.211437 -0.406807 -0.072786 -0.253945 -0.228475 0.246689 -0.263823 -0.324964 0.241318 -0.123099 -0.055835 -0.296177 -0.027503 0.506323 -0.483255 0.203676 0.354461 0.132987 -0.385726 -0.233920 -0.033222 -0.387293 -0.189164 -0.246362 0.008672 -0.093521 0.387036 -0.062990 -0.168827 0.002643 -0.243763 0.027929 -0.063613 0.106953 -0.406336 -0.155455 0.135505 0.202202 -0.266904 -0.139949 -0.308007 0.158961 -0.533558 -0.237330 0.085884 -0.145884 0.129778 -0.255787 0.014743 0.242040
开 -0.062198 0.414715 -0.050300 0.079194 -0.378783 -0.116085 -0.041906 0.020930 -0.386733 -0.487280 -0.175832 0.200863 -0.027973 -0.003210 0.288943 -0.247331 -0.060460 -0.052912 0.073614 -0.051388 -0.059257 -0.296373 -0.053160 0.038282 -0.082981 0.086086 0.006097 0.014160 0.513117 0.016319 -0.107104 -0.032944 0.093470 0.341406 -0.203494 0.010273 0.130101 -0.425504 -0.093716 0.050535 0.284109 -0.034596 -0.496388 -0.077185 -0.165615 0.160175 -0.018864 -0.185875 0.118923 -0.053204 -0.093899 -0.337416 0.084096 0.192275 -0.024874 0.291485 0.021448 0.108582 0.062390 0.158558 0.109901 -0.041147 -0.344243 0.125504 -0.190119 -0.039060 -0.054318 0.134514 -0.020316 0.018091 -0.068616 0.068251 -0.158986 0.002679 0.296527 0.040307 0.007979 0.005168 -0.070022 -0.020276 0.055813 -0.149158 -0.117525 0.311013 0.099724 0.154549 -0.371958 0.047838 -0.153150 0.274414 -0.470650 0.051819 0.297717 -0.041390 0.135285 -0.247556 0.140477 0.163869 -0.038170 0.092549
r -0.351796 0.063982 0.409809 -0.502170 0.159487 0.295959 0.168289 -0.021176 -0.032711 0.357606 -0.118818 -0.243786 -0.131173 -0.358623 0.554576 -0.128606 0.472762 0.037599 0.304046 -0.992486 -0.513923 -0.326734 -0.296560 0.025577 0.084988 0.365881 0.053976 0.617547 0.545096 0.162520 0.153500 -0.206797 0.012718 -0.196882 -0.285642 0.060598 0.042318 0.205487 -0.161538 0.127387 -0.088158 -0.414641 -0.218569 0.246480 0.129234 -0.135557 0.497331 -0.806050 0.029307 0.000809 0.176186 0.258901 -0.291891 -0.413227 0.182404 -0.434369 -0.047443 0.210371 -0.135976 -0.327723 -0.375081 0.367065 0.122040 -0.762328 -0.983618 0.139320 0.091754 0.359774 -0.099281 0.046705 0.173507 0.298445 0.169091 -0.245455 0.093265 0.060870 0.136191 -0.302365 0.169600 0.340356 -0.568988 -0.172728 -0.294395 0.094047 0.156855 -0.305134 -0.196353 0.382137 -0.142653 0.165222 -0.437584 -0.118084 -0.320223 -0.001505 0.678745 0.853936 -0.504295 0.237291 0.801529 -0.082711
最 -0.212371 -0.048879 -0.345541 -0.315009 -0.200895 0.250481 0.104016 -0.129055 -0.239268 0.139969 0.066548 -0.053915 -0.002829 0.209759 0.082005 0.305662 0.130779 0.222683 0.266123 -0.063109 0.106868 -0.072291 0.029589 -0.028281 -0.310009 -0.155906 0.134960 0.074282 -0.068292 0.003313 0.083424 0.085299 0.196790 -0.001642 -0.309051 0.025964 -0.196932 0.015066 0.067270 -0.194642 0.170421 -0.265456 0.107896 -0.096356 0.169677 -0.166440 -0.007769 0.132306 -0.067169 -0.076005 -0.406848 0.000619 -0.383085 0.297886 -0.419621 0.415805 0.149765 -0.001422 -0.324631 0.026049 -0.099762 0.112415 -0.184758 -0.183954 0.337581 -0.133686 0.077743 -0.190115 -0.148088 0.152789 0.074473 -0.157577 0.075101 -0.183074 -0.121163 -0.379092 -0.435791 0.100936 0.112225 0.010509 -0.362935 0.036241 0.402982 -0.192808 -0.081937 -0.208617 -0.248885 -0.108195 -0.275542 -0.237138 0.024634 0.117978 0.123988 0.293342 0.182502 -0.413451 0.076734 0.285748 0.253868 0.304156
也 -0.243212 -0.181277 -0.082823 0.191982 0.024129 -0.043669 -0.019664 -0.290935 -0.248000 -0.028346 -0.279522 -0.043019 0.053924 0.069883 0.038027 0.110714 0.095681 -0.030021 -0.201985 0.125078 0.059495 -0.172582 -0.111619 -0.154224 -0.096307 0.025923 0.081882 0.052544 -0.020302 -0.025412 0.128154 -0.177223 0.210514 -0.041984 -0.042688 0.016213 -0.083762 -0.265907 -0.223577 -0.098094 0.069568 -0.197924 0.087082 0.214697 0.039070 -0.004657 -0.320078 -0.080157 -0.172594 -0.160067 0.160788 -0.049716 0.024186 -0.097243 0.157611 -0.110545 0.034962 0.109554 -0.142674 -0.108177 -0.047087 -0.050245 -0.086335 0.059438 0.212095 -0.229896 0.012331 0.004996 0.102903 -0.019861 0.121881 0.003575 0.165122 0.028434 0.053176 -0.185089 0.086573 -0.124199 0.143967 -0.136476 0.070142 0.293524 -0.054288 0.122937 -0.141559 -0.245971 0.003453 0.046707 0.140485 -0.124374 -0.199953 -0.140874 -0.008279 0.131899 -0.007900 0.022501 0.122389 -0.074984 -0.084542 0.273345
i -0.301507 0.048906 0.451104 -0.320884 0.091045 0.059254 0.079659 0.110082 -0.065313 0.311149 0.086139 -0.534132 -0.018071 -0.198388 0.685833 -0.205534 0.432211 -0.090616 0.287282 -0.791887 -0.490364 -0.023632 -0.338106 -0.225855 0.041980 0.270674 0.174800 0.678160 0.537719 -0.079369 0.021902 -0.163710 0.266239 -0.446896 0.021854 0.097016 0.024061 0.243775 -0.442694 0.055014 0.110233 -0.193588 -0.263834 0.031593 0.026007 -0.106472 0.435398 -0.618638 0.059829 -0.376608 0.054626 0.296951 -0.220191 -0.107363 0.048538 -0.338696 -0.068987 0.114871 -0.115076 -0.474916 -0.188027 0.316227 0.120775 -0.629471 -0.848210 0.166242 -0.131349 0.509912 -0.072369 0.095074 0.435545 0.174529 0.105511 -0.245539 0.256724 -0.083778 -0.092198 -0.090360 -0.027114 0.169696 -0.580989 -0.268275 -0.277057 0.016400 0.279798 -0.369122 -0.181487 0.212265 -0.104623 0.156579 -0.462182 -0.271393 -0.312983 -0.011633 0.613030 0.675198 -0.669162 0.092257 0.946211 -0.005899
任 0.056488 0.011724 -0.125912 0.542914 -0.026456 -0.082216 0.074141 -0.234767 -0.119766 -0.385227 -0.208669 0.245001 0.071736 0.123117 -0.369868 0.225644 0.075843 0.015684 0.197120 0.041085 0.285446 -0.054238 -0.091663 0.213796 0.033599 0.274371 -0.209806 0.113890 -0.237179 0.099392 -0.200365 -0.361924 -0.003937 0.116222 0.221584 -0.114698 -0.395271 -0.128557 -0.179099 0.192923 0.167541 -0.215483 -0.235079 0.346951 -0.123608 -0.183110 -0.027511 0.241239 0.334353 0.078106 -0.083704 0.200682 0.091048 -0.375388 -0.154356 0.119303 0.053753 -0.110123 0.059850 0.132795 -0.118045 -0.002067 -0.175533 -0.469333 0.359443 -0.030661 -0.328169 0.229252 0.271477 -0.555207 -0.293038 -0.211646 -0.095680 -0.392416 0.252218 0.210778 -0.099254 0.056744 -0.019015 -0.145651 -0.066651 0.003760 -0.289051 0.082307 0.233616 -0.391045 0.299917 0.073143 0.240489 -0.030427 0.096162 0.018352 0.252724 0.110772 0.224402 0.128181 0.099117 0.203534 0.238439 -0.139387
等 0.099224 0.007135 -0.149076 0.116974 0.121741 0.050788 0.089067 -0.070877 -0.047269 0.193190 -0.044620 -0.186508 0.037545 0.142884 0.089236 0.109029 0.063557 0.004836 0.207569 -0.037686 0.146152 -0.027858 -0.029952 -0.028567 -0.014136 -0.049611 -0.050998 -0.118005 0.069171 -0.025975 -0.220025 0.122523 0.118164 -0.094446 0.230295 0.009754 0.030782 -0.016423 0.080007 0.034585 -0.008636 -0.097436 -0.019731 0.230729 0.248142 -0.047812 0.101534 0.077164 -0.194249 -0.021476 -0.104834 0.064902 -0.086688 -0.014259 -0.037404 0.019596 0.099524 0.081087 0.016319 -0.082767 0.014625 -0.187279 -0.045118 -0.178732 0.033039 0.252944 0.046907 0.121906 -0.184966 -0.096976 -0.067801 0.008776 -0.122264 -0.096901 -0.079783 0.233868 -0.052751 0.054748 -0.059027 0.196364 -0.024759 0.015538 0.054071 -0.042025 0.030878 0.189373 0.119941 0.261900 -0.239238 -0.064038 -0.145601 0.109128 -0.080649 -0.074098 -0.160895 -0.040358 0.201853 -0.066330 -0.018774 -0.068371
- 0.289018 -0.619020 0.135646 -0.084406 0.203575 -0.013200 -0.002625 0.402580 0.271442 0.504314 0.090016 -0.119821 0.208075 -0.150804 -0.182351 -0.051286 0.060981 -0.132481 0.319601 -0.110506 -0.350199 -0.100824 -0.040769 -0.178747 0.035448 0.068911 -0.029600 0.228914 0.054729 0.034313 0.034014 -0.169314 0.162156 0.203193 0.006078 -0.112649 0.137920 -0.128397 -0.021411 -0.043158 0.031266 -0.385972 -0.252763 -0.220584 -0.040843 -0.216342 0.174090 -0.132078 -0.111328 0.172197 -0.070302 0.456304 -0.139071 0.211707 0.307137 -0.027001 -0.103475 0.339532 -0.030810 -0.188318 -0.078914 0.221897 -0.215239 0.032902 -0.309423 0.072795 0.401948 0.146406 0.088476 -0.159793 0.140858 0.166140 0.046146 -0.106632 0.111004 0.004291 0.034184 0.306512 0.396371 -0.035916 -0.011853 -0.257613 -0.402146 -0.069363 0.120838 0.076586 -0.022463 -0.275517 -0.048959 0.222362 -0.120381 0.825944 -0.214019 0.212650 -0.131590 0.330996 -0.180729 -0.005196 0.176731 -0.114652
文 0.108906 -0.147824 -0.243761 -0.408247 0.101432 -0.171968 0.352834 -0.373870 0.032689 -0.234863 -0.072159 0.045070 -0.245978 -0.148689 -0.218992 0.045156 -0.181626 0.034872 -0.091271 0.570112 0.232459 0.097899 0.005719 0.280134 0.115422 -0.284908 -0.161375 0.192832 -0.178506 0.143883 -0.060508 -0.238406 0.469847 -0.062477 0.160232 0.387127 0.085817 0.269875 0.097295 -0.108748 -0.115449 0.199711 0.131051 0.077718 -0.299221 -0.462669 0.603137 0.044823 -0.113439 -0.149347 -0.240194 0.326296 0.018053 -0.423917 -0.052217 0.037772 0.153229 -0.207552 -0.047999 -0.738633 0.108697 0.004913 -0.179222 0.089779 -0.016888 -0.089996 -0.037922 0.027906 -0.327774 -0.091725 -0.016106 0.531987 -0.216808 0.086405 -0.010402 0.472495 -0.054399 -0.077448 0.025778 -0.021780 0.193951 0.109401 0.272748 0.133310 0.209504 0.024980 0.057891 0.227160 -0.037742 -0.195803 -0.077382 0.176555 0.098678 0.416950 0.425534 -0.188019 0.515918 0.175604 0.073187 -0.313184
所 -0.133291 0.036853 -0.184170 0.069368 -0.020614 -0.122650 0.019689 0.088142 -0.014470 -0.012416 -0.230033 -0.225686 -0.118190 0.157931 0.234362 0.223127 0.032885 -0.141086 -0.105853 0.140289 0.086994 -0.156373 -0.125594 0.030867 0.000827 -0.144987 -0.014477 0.098769 0.091716 -0.026176 0.277548 -0.086422 -0.286285 -0.208122 -0.115327 0.194868 -0.154286 -0.033796 0.007252 -0.064537 0.052958 -0.170942 -0.041566 0.177221 0.002538 0.084921 -0.056047 0.118389 -0.175163 -0.131307 0.113301 0.007646 -0.108087 -0.036945 -0.013088 0.121782 0.092646 0.193167 -0.045365 -0.119246 0.022103 -0.218532 0.082570 0.035168 0.183979 -0.050291 -0.167615 0.220401 0.029238 0.141210 -0.017267 0.097607 0.169617 -0.009038 -0.090408 -0.078132 0.267118 0.067889 -0.172224 0.056913 0.105877 0.060024 0.135995 0.311792 0.104047 -0.046054 0.287413 -0.140933 -0.011462 0.037187 -0.121729 -0.122129 0.190486 0.029591 -0.005834 -0.314954 0.096407 0.221159 0.244174 0.022347
